%YAML:1.0
opencv_ml_ann_mlp:
   format: 3
   layer_sizes: [ 1024, 16, 4 ]
   activation_function: SIGMOID_SYM
   f_param1: 5.9999999999999998e-01
   f_param2: 1.
   min_val: -9.4999999999999996e-01
   max_val: 9.4999999999999996e-01
   min_val1: -9.7999999999999998e-01
   max_val1: 9.7999999999999998e-01
   training_params:
      train_method: BACKPROP
      dw_scale: 1.0000000000000001e-01
      moment_scale: 1.0000000000000001e-01
      term_criteria:
         epsilon: 9.9999999999999995e-07
         iterations: 1000
   input_scale:
      - 2.
      - -1.
      - 2.
      - -1.
      - 2.
      - -1.
      - 2.
      - -1.
      - 2.
      - -1.
      - 2.
      - -1.
      - 2.
      - -1.
      - 2.
      - -1.
      - 2.
      - -1.
      - 2.
      - -1.
      - 2.
      - -1.
      - 2.
      - -1.
      - 2.0655911179772888e+00
      - -7.7459666924148329e-01
      - 2.0158105227158782e+00
      - -8.8191710368819676e-01
      - 2.0655911179772888e+00
      - -7.7459666924148329e-01
      - 2.1574395598823748e+00
      - -6.7419986246324215e-01
      - 2.0655911179772888e+00
      - -7.7459666924148329e-01
      - 2.0158105227158782e+00
      - -8.8191710368819676e-01
      - 2.0158105227158782e+00
      - -8.8191710368819676e-01
      - 2.0655911179772888e+00
      - -7.7459666924148329e-01
      - 2.
      - -1.
      - 2.
      - -1.
      - 2.
      - -1.
      - 2.
      - -1.
      - 2.
      - -1.
      - 2.
      - -1.
      - 2.
      - -1.
      - 2.
      - -1.
      - 2.
      - -1.
      - 2.
      - -1.
      - 2.
      - -1.
      - 2.
      - -1.
      - 2.
      - -1.
      - 2.0158105227158782e+00
      - -1.1338934190276815e+00
      - 2.0158105227158782e+00
      - -1.1338934190276815e+00
      - 2.0158105227158782e+00
      - -1.1338934190276815e+00
      - 2.0158105227158782e+00
      - -1.1338934190276815e+00
      - 2.0158105227158782e+00
      - -1.1338934190276815e+00
      - 2.0158105227158782e+00
      - -1.1338934190276815e+00
      - 2.0158105227158782e+00
      - -1.1338934190276815e+00
      - 2.0158105227158782e+00
      - -1.1338934190276815e+00
      - 2.0158105227158782e+00
      - -8.8191710368819676e-01
      - 2.
      - -1.
      - 2.
      - -1.
      - 2.
      - -1.
      - 2.
      - -1.
      - 2.0655911179772888e+00
      - -7.7459666924148329e-01
      - 2.3094010767585034e+00
      - -5.7735026918962584e-01
      - 2.1574395598823748e+00
      - -6.7419986246324215e-01
      - 2.0158105227158782e+00
      - -8.8191710368819676e-01
      - 2.
      - -1.
      - 2.
      - -1.
      - 2.
      - -1.
      - 2.
      - -1.
      - 2.0158105227158782e+00
      - -8.8191710368819676e-01
      - 2.0158105227158782e+00
      - -1.1338934190276815e+00
      - 2.0158105227158782e+00
      - -1.1338934190276815e+00
      - 2.0158105227158782e+00
      - -1.1338934190276815e+00
      - 2.0158105227158782e+00
      - -1.1338934190276815e+00
      - 2.0158105227158782e+00
      - -1.1338934190276815e+00
      - 2.0158105227158782e+00
      - -1.1338934190276815e+00
      - 2.0158105227158782e+00
      - -1.1338934190276815e+00
      - 2.0158105227158782e+00
      - -1.1338934190276815e+00
      - 2.
      - -1.
      - 2.0158105227158782e+00
      - -1.1338934190276815e+00
      - 2.
      - -1.
      - 2.0158105227158782e+00
      - -1.1338934190276815e+00
      - 2.0158105227158782e+00
      - -1.1338934190276815e+00
      - 2.0158105227158782e+00
      - -1.1338934190276815e+00
      - 2.0158105227158782e+00
      - -1.1338934190276815e+00
      - 2.0158105227158782e+00
      - -1.1338934190276815e+00
      - 2.0158105227158782e+00
      - -8.8191710368819676e-01
      - 2.
      - -1.
      - 2.
      - -1.
      - 2.
      - -1.
      - 2.
      - -1.
      - 2.
      - -1.
      - 2.0158105227158782e+00
      - -8.8191710368819676e-01
      - 2.0158105227158782e+00
      - -8.8191710368819676e-01
      - 2.1574395598823748e+00
      - -6.7419986246324215e-01
      - 2.3094010767585034e+00
      - -5.7735026918962584e-01
      - 2.
      - -1.
      - 2.0158105227158782e+00
      - -8.8191710368819676e-01
      - 2.
      - -1.
      - 2.
      - -1.
      - 2.
      - -1.
      - 2.
      - -1.
      - 2.
      - -1.
      - 2.0158105227158782e+00
      - -8.8191710368819676e-01
      - 2.0158105227158782e+00
      - -1.1338934190276815e+00
      - 2.0158105227158782e+00
      - -1.1338934190276815e+00
      - 2.0158105227158782e+00
      - -1.1338934190276815e+00
      - 2.0158105227158782e+00
      - -1.1338934190276815e+00
      - 2.0158105227158782e+00
      - -1.1338934190276815e+00
      - 2.
      - -1.
      - 2.0158105227158782e+00
      - -1.1338934190276815e+00
      - 2.0158105227158782e+00
      - -1.1338934190276815e+00
      - 2.
      - -1.
      - 2.0655911179772888e+00
      - -1.2909944487358054e+00
      - 2.0655911179772888e+00
      - -1.2909944487358054e+00
      - 2.0655911179772888e+00
      - -1.2909944487358054e+00
      - 2.0655911179772888e+00
      - -1.2909944487358054e+00
      - 2.
      - -1.
      - 2.0158105227158782e+00
      - -1.1338934190276815e+00
      - 2.0158105227158782e+00
      - -1.1338934190276815e+00
      - 2.0158105227158782e+00
      - -1.1338934190276815e+00
      - 2.0158105227158782e+00
      - -1.1338934190276815e+00
      - 2.0158105227158782e+00
      - -1.1338934190276815e+00
      - 2.
      - -1.
      - 2.
      - -1.
      - 2.0655911179772888e+00
      - -7.7459666924148329e-01
      - 2.0158105227158782e+00
      - -8.8191710368819676e-01
      - 2.0655911179772888e+00
      - -7.7459666924148329e-01
      - 2.0655911179772888e+00
      - -7.7459666924148329e-01
      - 2.0158105227158782e+00
      - -1.1338934190276815e+00
      - 2.
      - -1.
      - 2.0158105227158782e+00
      - -1.1338934190276815e+00
      - 2.0158105227158782e+00
      - -1.1338934190276815e+00
      - 2.0158105227158782e+00
      - -1.1338934190276815e+00
      - 2.0158105227158782e+00
      - -1.1338934190276815e+00
      - 2.0158105227158782e+00
      - -1.1338934190276815e+00
      - 2.0158105227158782e+00
      - -1.1338934190276815e+00
      - 2.0655911179772888e+00
      - -1.2909944487358054e+00
      - 2.0655911179772888e+00
      - -1.2909944487358054e+00
      - 2.0655911179772888e+00
      - -1.2909944487358054e+00
      - 2.0655911179772888e+00
      - -1.2909944487358054e+00
      - 2.
      - -1.
      - 2.0158105227158782e+00
      - -1.1338934190276815e+00
      - 2.0158105227158782e+00
      - -1.1338934190276815e+00
      - 2.0158105227158782e+00
      - -1.1338934190276815e+00
      - 2.0158105227158782e+00
      - -1.1338934190276815e+00
      - 2.0655911179772888e+00
      - -1.2909944487358054e+00
      - 2.0655911179772888e+00
      - -1.2909944487358054e+00
      - 2.0158105227158782e+00
      - -1.1338934190276815e+00
      - 2.0158105227158782e+00
      - -1.1338934190276815e+00
      - 2.0158105227158782e+00
      - -1.1338934190276815e+00
      - 2.0158105227158782e+00
      - -1.1338934190276815e+00
      - 2.0158105227158782e+00
      - -1.1338934190276815e+00
      - 2.0158105227158782e+00
      - -1.1338934190276815e+00
      - 2.0158105227158782e+00
      - -1.1338934190276815e+00
      - 2.0655911179772888e+00
      - -1.2909944487358054e+00
      - 2.0158105227158782e+00
      - -1.1338934190276815e+00
      - 2.0158105227158782e+00
      - -8.8191710368819676e-01
      - 2.0158105227158782e+00
      - -8.8191710368819676e-01
      - 2.0655911179772888e+00
      - -7.7459666924148329e-01
      - 2.0655911179772888e+00
      - -7.7459666924148329e-01
      - 2.0655911179772888e+00
      - -1.2909944487358054e+00
      - 2.0655911179772888e+00
      - -1.2909944487358054e+00
      - 2.0158105227158782e+00
      - -1.1338934190276815e+00
      - 2.0158105227158782e+00
      - -1.1338934190276815e+00
      - 2.0158105227158782e+00
      - -1.1338934190276815e+00
      - 2.0158105227158782e+00
      - -1.1338934190276815e+00
      - 2.0158105227158782e+00
      - -1.1338934190276815e+00
      - 2.0158105227158782e+00
      - -1.1338934190276815e+00
      - 2.0158105227158782e+00
      - -1.1338934190276815e+00
      - 2.0655911179772888e+00
      - -1.2909944487358054e+00
      - 2.0655911179772888e+00
      - -1.2909944487358054e+00
      - 2.0158105227158782e+00
      - -1.1338934190276815e+00
      - 2.0158105227158782e+00
      - -1.1338934190276815e+00
      - 2.0158105227158782e+00
      - -1.1338934190276815e+00
      - 2.0158105227158782e+00
      - -1.1338934190276815e+00
      - 2.0158105227158782e+00
      - -1.1338934190276815e+00
      - 2.0158105227158782e+00
      - -1.1338934190276815e+00
      - 2.0655911179772888e+00
      - -1.2909944487358054e+00
      - 2.0158105227158782e+00
      - -1.1338934190276815e+00
      - 2.0158105227158782e+00
      - -1.1338934190276815e+00
      - 2.0158105227158782e+00
      - -1.1338934190276815e+00
      - 2.0158105227158782e+00
      - -1.1338934190276815e+00
      - 2.0158105227158782e+00
      - -1.1338934190276815e+00
      - 2.0655911179772888e+00
      - -1.2909944487358054e+00
      - 2.0158105227158782e+00
      - -1.1338934190276815e+00
      - 2.0655911179772888e+00
      - -1.2909944487358054e+00
      - 2.0158105227158782e+00
      - -1.1338934190276815e+00
      - 2.0655911179772888e+00
      - -7.7459666924148329e-01
      - 2.0158105227158782e+00
      - -8.8191710368819676e-01
      - 2.0655911179772888e+00
      - -1.2909944487358054e+00
      - 2.0655911179772888e+00
      - -1.2909944487358054e+00
      - 2.1574395598823748e+00
      - -6.7419986246324215e-01
      - 2.0158105227158782e+00
      - -8.8191710368819676e-01
      - 2.0655911179772888e+00
      - -1.2909944487358054e+00
      - 2.0655911179772888e+00
      - -1.2909944487358054e+00
      - 2.0158105227158782e+00
      - -1.1338934190276815e+00
      - 2.0655911179772888e+00
      - -1.2909944487358054e+00
      - 2.0158105227158782e+00
      - -1.1338934190276815e+00
      - 2.0158105227158782e+00
      - -1.1338934190276815e+00
      - 2.0158105227158782e+00
      - -1.1338934190276815e+00
      - 2.0158105227158782e+00
      - -1.1338934190276815e+00
      - 2.0158105227158782e+00
      - -1.1338934190276815e+00
      - 2.0655911179772888e+00
      - -1.2909944487358054e+00
      - 2.0158105227158782e+00
      - -1.1338934190276815e+00
      - 2.0158105227158782e+00
      - -1.1338934190276815e+00
      - 2.0158105227158782e+00
      - -1.1338934190276815e+00
      - 2.0158105227158782e+00
      - -1.1338934190276815e+00
      - 2.0158105227158782e+00
      - -1.1338934190276815e+00
      - 2.0655911179772888e+00
      - -1.2909944487358054e+00
      - 2.
      - -1.
      - 2.0158105227158782e+00
      - -1.1338934190276815e+00
      - 2.0158105227158782e+00
      - -1.1338934190276815e+00
      - 2.0158105227158782e+00
      - -1.1338934190276815e+00
      - 2.0158105227158782e+00
      - -1.1338934190276815e+00
      - 2.0655911179772888e+00
      - -1.2909944487358054e+00
      - 2.0158105227158782e+00
      - -1.1338934190276815e+00
      - 2.0655911179772888e+00
      - -1.2909944487358054e+00
      - 2.0655911179772888e+00
      - -1.2909944487358054e+00
      - 2.
      - -1.
      - 2.0158105227158782e+00
      - -8.8191710368819676e-01
      - 2.0158105227158782e+00
      - -8.8191710368819676e-01
      - 2.0655911179772888e+00
      - -1.2909944487358054e+00
      - 2.0655911179772888e+00
      - -1.2909944487358054e+00
      - 2.0158105227158782e+00
      - -8.8191710368819676e-01
      - 2.0655911179772888e+00
      - -7.7459666924148329e-01
      - 2.0655911179772888e+00
      - -1.2909944487358054e+00
      - 2.0655911179772888e+00
      - -1.2909944487358054e+00
      - 2.0655911179772888e+00
      - -1.2909944487358054e+00
      - 2.0158105227158782e+00
      - -1.1338934190276815e+00
      - 2.0655911179772888e+00
      - -1.2909944487358054e+00
      - 2.0158105227158782e+00
      - -1.1338934190276815e+00
      - 2.0158105227158782e+00
      - -1.1338934190276815e+00
      - 2.0158105227158782e+00
      - -1.1338934190276815e+00
      - 2.0158105227158782e+00
      - -1.1338934190276815e+00
      - 2.
      - -1.
      - 2.0655911179772888e+00
      - -1.2909944487358054e+00
      - 2.0158105227158782e+00
      - -1.1338934190276815e+00
      - 2.0158105227158782e+00
      - -1.1338934190276815e+00
      - 2.0158105227158782e+00
      - -1.1338934190276815e+00
      - 2.0158105227158782e+00
      - -1.1338934190276815e+00
      - 2.
      - -1.
      - 2.
      - -1.
      - 2.0158105227158782e+00
      - -1.1338934190276815e+00
      - 2.0158105227158782e+00
      - -1.1338934190276815e+00
      - 2.0158105227158782e+00
      - -1.1338934190276815e+00
      - 2.0655911179772888e+00
      - -1.2909944487358054e+00
      - 2.0158105227158782e+00
      - -1.1338934190276815e+00
      - 2.0655911179772888e+00
      - -1.2909944487358054e+00
      - 2.0655911179772888e+00
      - -1.2909944487358054e+00
      - 2.
      - -1.
      - 2.0158105227158782e+00
      - -8.8191710368819676e-01
      - 2.0158105227158782e+00
      - -8.8191710368819676e-01
      - 2.0655911179772888e+00
      - -1.2909944487358054e+00
      - 2.0655911179772888e+00
      - -1.2909944487358054e+00
      - 2.0655911179772888e+00
      - -1.2909944487358054e+00
      - 2.0655911179772888e+00
      - -1.2909944487358054e+00
      - 2.0655911179772888e+00
      - -7.7459666924148329e-01
      - 2.0158105227158782e+00
      - -8.8191710368819676e-01
      - 2.0158105227158782e+00
      - -1.1338934190276815e+00
      - 2.0655911179772888e+00
      - -1.2909944487358054e+00
      - 2.0655911179772888e+00
      - -1.2909944487358054e+00
      - 2.0158105227158782e+00
      - -1.1338934190276815e+00
      - 2.0655911179772888e+00
      - -1.2909944487358054e+00
      - 2.0158105227158782e+00
      - -1.1338934190276815e+00
      - 2.0158105227158782e+00
      - -1.1338934190276815e+00
      - 2.0158105227158782e+00
      - -1.1338934190276815e+00
      - 2.
      - -1.
      - 2.
      - -1.
      - 2.0158105227158782e+00
      - -1.1338934190276815e+00
      - 2.0158105227158782e+00
      - -1.1338934190276815e+00
      - 2.0158105227158782e+00
      - -1.1338934190276815e+00
      - 2.0158105227158782e+00
      - -1.1338934190276815e+00
      - 2.0158105227158782e+00
      - -1.1338934190276815e+00
      - 2.0158105227158782e+00
      - -1.1338934190276815e+00
      - 2.
      - -1.
      - 2.0158105227158782e+00
      - -1.1338934190276815e+00
      - 2.0655911179772888e+00
      - -1.2909944487358054e+00
      - 2.0655911179772888e+00
      - -1.2909944487358054e+00
      - 2.0655911179772888e+00
      - -1.2909944487358054e+00
      - 2.0655911179772888e+00
      - -1.2909944487358054e+00
      - 2.0158105227158782e+00
      - -1.1338934190276815e+00
      - 2.0158105227158782e+00
      - -1.1338934190276815e+00
      - 2.0158105227158782e+00
      - -8.8191710368819676e-01
      - 2.0158105227158782e+00
      - -8.8191710368819676e-01
      - 2.0655911179772888e+00
      - -1.2909944487358054e+00
      - 2.0655911179772888e+00
      - -1.2909944487358054e+00
      - 2.0655911179772888e+00
      - -1.2909944487358054e+00
      - 2.0655911179772888e+00
      - -1.2909944487358054e+00
      - 2.0158105227158782e+00
      - -8.8191710368819676e-01
      - 2.0655911179772888e+00
      - -7.7459666924148329e-01
      - 2.0655911179772888e+00
      - -1.2909944487358054e+00
      - 2.0158105227158782e+00
      - -1.1338934190276815e+00
      - 2.0655911179772888e+00
      - -1.2909944487358054e+00
      - 2.0655911179772888e+00
      - -1.2909944487358054e+00
      - 2.0158105227158782e+00
      - -1.1338934190276815e+00
      - 2.0655911179772888e+00
      - -1.2909944487358054e+00
      - 2.0158105227158782e+00
      - -1.1338934190276815e+00
      - 2.
      - -1.
      - 2.0158105227158782e+00
      - -1.1338934190276815e+00
      - 2.0158105227158782e+00
      - -1.1338934190276815e+00
      - 2.0158105227158782e+00
      - -1.1338934190276815e+00
      - 2.0158105227158782e+00
      - -1.1338934190276815e+00
      - 2.0158105227158782e+00
      - -1.1338934190276815e+00
      - 2.0158105227158782e+00
      - -8.8191710368819676e-01
      - 2.0158105227158782e+00
      - -1.1338934190276815e+00
      - 2.0158105227158782e+00
      - -1.1338934190276815e+00
      - 2.
      - -1.
      - 2.0655911179772888e+00
      - -1.2909944487358054e+00
      - 2.0158105227158782e+00
      - -1.1338934190276815e+00
      - 2.0655911179772888e+00
      - -1.2909944487358054e+00
      - 2.0655911179772888e+00
      - -1.2909944487358054e+00
      - 2.0158105227158782e+00
      - -1.1338934190276815e+00
      - 2.0158105227158782e+00
      - -1.1338934190276815e+00
      - 2.0158105227158782e+00
      - -8.8191710368819676e-01
      - 2.0158105227158782e+00
      - -8.8191710368819676e-01
      - 2.0655911179772888e+00
      - -1.2909944487358054e+00
      - 2.0655911179772888e+00
      - -1.2909944487358054e+00
      - 2.0655911179772888e+00
      - -1.2909944487358054e+00
      - 2.0655911179772888e+00
      - -1.2909944487358054e+00
      - 2.0655911179772888e+00
      - -1.2909944487358054e+00
      - 2.0655911179772888e+00
      - -1.2909944487358054e+00
      - 2.0655911179772888e+00
      - -7.7459666924148329e-01
      - 2.0158105227158782e+00
      - -8.8191710368819676e-01
      - 2.0655911179772888e+00
      - -1.2909944487358054e+00
      - 2.0158105227158782e+00
      - -1.1338934190276815e+00
      - 2.0655911179772888e+00
      - -1.2909944487358054e+00
      - 2.0655911179772888e+00
      - -1.2909944487358054e+00
      - 2.0158105227158782e+00
      - -1.1338934190276815e+00
      - 2.0655911179772888e+00
      - -1.2909944487358054e+00
      - 2.
      - -1.
      - 2.0158105227158782e+00
      - -1.1338934190276815e+00
      - 2.0158105227158782e+00
      - -1.1338934190276815e+00
      - 2.0158105227158782e+00
      - -8.8191710368819676e-01
      - 2.0158105227158782e+00
      - -1.1338934190276815e+00
      - 2.0158105227158782e+00
      - -1.1338934190276815e+00
      - 2.
      - -1.
      - 2.0158105227158782e+00
      - -1.1338934190276815e+00
      - 2.0158105227158782e+00
      - -1.1338934190276815e+00
      - 2.0158105227158782e+00
      - -1.1338934190276815e+00
      - 2.
      - -1.
      - 2.0655911179772888e+00
      - -1.2909944487358054e+00
      - 2.0655911179772888e+00
      - -1.2909944487358054e+00
      - 2.0158105227158782e+00
      - -1.1338934190276815e+00
      - 2.0655911179772888e+00
      - -1.2909944487358054e+00
      - 2.0158105227158782e+00
      - -1.1338934190276815e+00
      - 2.0158105227158782e+00
      - -8.8191710368819676e-01
      - 2.0158105227158782e+00
      - -8.8191710368819676e-01
      - 2.0655911179772888e+00
      - -1.2909944487358054e+00
      - 2.0655911179772888e+00
      - -1.2909944487358054e+00
      - 2.0655911179772888e+00
      - -1.2909944487358054e+00
      - 2.0655911179772888e+00
      - -1.2909944487358054e+00
      - 2.0655911179772888e+00
      - -1.2909944487358054e+00
      - 2.0655911179772888e+00
      - -1.2909944487358054e+00
      - 2.0158105227158782e+00
      - -8.8191710368819676e-01
      - 2.0655911179772888e+00
      - -7.7459666924148329e-01
      - 2.0655911179772888e+00
      - -1.2909944487358054e+00
      - 2.0655911179772888e+00
      - -1.2909944487358054e+00
      - 2.0158105227158782e+00
      - -1.1338934190276815e+00
      - 2.0655911179772888e+00
      - -1.2909944487358054e+00
      - 2.0655911179772888e+00
      - -1.2909944487358054e+00
      - 2.
      - -1.
      - 2.0158105227158782e+00
      - -1.1338934190276815e+00
      - 2.0158105227158782e+00
      - -1.1338934190276815e+00
      - 2.0158105227158782e+00
      - -1.1338934190276815e+00
      - 2.
      - -1.
      - 2.0158105227158782e+00
      - -1.1338934190276815e+00
      - 2.0158105227158782e+00
      - -1.1338934190276815e+00
      - 2.
      - -1.
      - 2.0158105227158782e+00
      - -1.1338934190276815e+00
      - 2.0158105227158782e+00
      - -1.1338934190276815e+00
      - 2.0158105227158782e+00
      - -1.1338934190276815e+00
      - 2.0158105227158782e+00
      - -1.1338934190276815e+00
      - 2.0655911179772888e+00
      - -1.2909944487358054e+00
      - 2.0158105227158782e+00
      - -1.1338934190276815e+00
      - 2.0655911179772888e+00
      - -1.2909944487358054e+00
      - 2.0158105227158782e+00
      - -1.1338934190276815e+00
      - 2.0158105227158782e+00
      - -8.8191710368819676e-01
      - 2.0158105227158782e+00
      - -8.8191710368819676e-01
      - 2.0655911179772888e+00
      - -1.2909944487358054e+00
      - 2.0655911179772888e+00
      - -1.2909944487358054e+00
      - 2.0655911179772888e+00
      - -1.2909944487358054e+00
      - 2.0655911179772888e+00
      - -1.2909944487358054e+00
      - 2.0655911179772888e+00
      - -1.2909944487358054e+00
      - 2.0655911179772888e+00
      - -1.2909944487358054e+00
      - 2.0655911179772888e+00
      - -1.2909944487358054e+00
      - 2.0655911179772888e+00
      - -1.2909944487358054e+00
      - 2.0655911179772888e+00
      - -7.7459666924148329e-01
      - 2.0655911179772888e+00
      - -7.7459666924148329e-01
      - 2.0655911179772888e+00
      - -1.2909944487358054e+00
      - 2.0655911179772888e+00
      - -1.2909944487358054e+00
      - 2.0158105227158782e+00
      - -1.1338934190276815e+00
      - 2.0655911179772888e+00
      - -1.2909944487358054e+00
      - 2.0158105227158782e+00
      - -1.1338934190276815e+00
      - 2.0158105227158782e+00
      - -1.1338934190276815e+00
      - 2.0158105227158782e+00
      - -1.1338934190276815e+00
      - 2.0158105227158782e+00
      - -1.1338934190276815e+00
      - 2.
      - -1.
      - 2.0158105227158782e+00
      - -1.1338934190276815e+00
      - 2.0158105227158782e+00
      - -8.8191710368819676e-01
      - 2.
      - -1.
      - 2.0158105227158782e+00
      - -1.1338934190276815e+00
      - 2.
      - -1.
      - 2.0655911179772888e+00
      - -1.2909944487358054e+00
      - 2.0655911179772888e+00
      - -1.2909944487358054e+00
      - 2.0158105227158782e+00
      - -1.1338934190276815e+00
      - 2.0655911179772888e+00
      - -1.2909944487358054e+00
      - 2.0655911179772888e+00
      - -1.2909944487358054e+00
      - 2.0158105227158782e+00
      - -1.1338934190276815e+00
      - 2.0158105227158782e+00
      - -8.8191710368819676e-01
      - 2.0158105227158782e+00
      - -8.8191710368819676e-01
      - 2.0655911179772888e+00
      - -1.2909944487358054e+00
      - 2.0655911179772888e+00
      - -1.2909944487358054e+00
      - 2.0655911179772888e+00
      - -1.2909944487358054e+00
      - 2.0655911179772888e+00
      - -1.2909944487358054e+00
      - 2.0655911179772888e+00
      - -1.2909944487358054e+00
      - 2.0655911179772888e+00
      - -1.2909944487358054e+00
      - 2.0655911179772888e+00
      - -1.2909944487358054e+00
      - 2.0655911179772888e+00
      - -1.2909944487358054e+00
      - 2.0158105227158782e+00
      - -8.8191710368819676e-01
      - 2.0655911179772888e+00
      - -7.7459666924148329e-01
      - 2.0655911179772888e+00
      - -1.2909944487358054e+00
      - 2.0655911179772888e+00
      - -1.2909944487358054e+00
      - 2.0655911179772888e+00
      - -1.2909944487358054e+00
      - 2.
      - -1.
      - 2.0655911179772888e+00
      - -1.2909944487358054e+00
      - 2.0655911179772888e+00
      - -1.2909944487358054e+00
      - 2.
      - -1.
      - 2.0158105227158782e+00
      - -1.1338934190276815e+00
      - 2.
      - -1.
      - 2.0158105227158782e+00
      - -8.8191710368819676e-01
      - 2.
      - -1.
      - 2.
      - -1.
      - 2.
      - -1.
      - 2.0158105227158782e+00
      - -1.1338934190276815e+00
      - 2.0655911179772888e+00
      - -1.2909944487358054e+00
      - 2.0655911179772888e+00
      - -1.2909944487358054e+00
      - 2.0158105227158782e+00
      - -1.1338934190276815e+00
      - 2.0655911179772888e+00
      - -1.2909944487358054e+00
      - 2.0158105227158782e+00
      - -1.1338934190276815e+00
      - 2.0655911179772888e+00
      - -7.7459666924148329e-01
      - 2.0158105227158782e+00
      - -8.8191710368819676e-01
      - 2.0655911179772888e+00
      - -1.2909944487358054e+00
      - 2.0655911179772888e+00
      - -1.2909944487358054e+00
      - 2.0655911179772888e+00
      - -1.2909944487358054e+00
      - 2.0655911179772888e+00
      - -1.2909944487358054e+00
      - 2.0655911179772888e+00
      - -1.2909944487358054e+00
      - 2.0655911179772888e+00
      - -1.2909944487358054e+00
      - 2.0655911179772888e+00
      - -1.2909944487358054e+00
      - 2.0655911179772888e+00
      - -1.2909944487358054e+00
      - 2.0655911179772888e+00
      - -1.2909944487358054e+00
      - 2.0655911179772888e+00
      - -1.2909944487358054e+00
      - 2.0655911179772888e+00
      - -7.7459666924148329e-01
      - 2.0158105227158782e+00
      - -8.8191710368819676e-01
      - 2.0655911179772888e+00
      - -1.2909944487358054e+00
      - 2.0655911179772888e+00
      - -1.2909944487358054e+00
      - 2.0158105227158782e+00
      - -1.1338934190276815e+00
      - 2.0158105227158782e+00
      - -1.1338934190276815e+00
      - 2.0655911179772888e+00
      - -1.2909944487358054e+00
      - 2.0158105227158782e+00
      - -1.1338934190276815e+00
      - 2.
      - -1.
      - 2.
      - -1.
      - 2.
      - -1.
      - 2.
      - -1.
      - 2.0158105227158782e+00
      - -8.8191710368819676e-01
      - 2.0158105227158782e+00
      - -1.1338934190276815e+00
      - 2.
      - -1.
      - 2.0655911179772888e+00
      - -1.2909944487358054e+00
      - 2.0655911179772888e+00
      - -1.2909944487358054e+00
      - 2.0655911179772888e+00
      - -1.2909944487358054e+00
      - 2.0158105227158782e+00
      - -1.1338934190276815e+00
      - 2.0158105227158782e+00
      - -1.1338934190276815e+00
      - 2.0158105227158782e+00
      - -8.8191710368819676e-01
      - 2.0158105227158782e+00
      - -8.8191710368819676e-01
      - 2.0655911179772888e+00
      - -1.2909944487358054e+00
      - 2.0655911179772888e+00
      - -1.2909944487358054e+00
      - 2.0655911179772888e+00
      - -1.2909944487358054e+00
      - 2.0655911179772888e+00
      - -1.2909944487358054e+00
      - 2.0655911179772888e+00
      - -1.2909944487358054e+00
      - 2.0655911179772888e+00
      - -1.2909944487358054e+00
      - 2.0655911179772888e+00
      - -1.2909944487358054e+00
      - 2.0655911179772888e+00
      - -1.2909944487358054e+00
      - 2.0655911179772888e+00
      - -1.2909944487358054e+00
      - 2.0655911179772888e+00
      - -1.2909944487358054e+00
      - 2.0158105227158782e+00
      - -8.8191710368819676e-01
      - 2.0655911179772888e+00
      - -7.7459666924148329e-01
      - 2.0655911179772888e+00
      - -1.2909944487358054e+00
      - 2.0158105227158782e+00
      - -1.1338934190276815e+00
      - 2.0655911179772888e+00
      - -1.2909944487358054e+00
      - 2.0655911179772888e+00
      - -1.2909944487358054e+00
      - 2.0158105227158782e+00
      - -1.1338934190276815e+00
      - 2.0158105227158782e+00
      - -1.1338934190276815e+00
      - 2.0158105227158782e+00
      - -1.1338934190276815e+00
      - 2.0158105227158782e+00
      - -8.8191710368819676e-01
      - 2.
      - -1.
      - 2.0158105227158782e+00
      - -8.8191710368819676e-01
      - 2.
      - -1.
      - 2.0158105227158782e+00
      - -1.1338934190276815e+00
      - 2.0158105227158782e+00
      - -1.1338934190276815e+00
      - 2.0655911179772888e+00
      - -1.2909944487358054e+00
      - 2.0655911179772888e+00
      - -1.2909944487358054e+00
      - 2.0655911179772888e+00
      - -1.2909944487358054e+00
      - 2.
      - -1.
      - 2.0655911179772888e+00
      - -7.7459666924148329e-01
      - 2.0158105227158782e+00
      - -8.8191710368819676e-01
      - 2.0655911179772888e+00
      - -1.2909944487358054e+00
      - 2.0655911179772888e+00
      - -1.2909944487358054e+00
      - 2.0655911179772888e+00
      - -1.2909944487358054e+00
      - 2.0655911179772888e+00
      - -1.2909944487358054e+00
      - 2.0655911179772888e+00
      - -1.2909944487358054e+00
      - 2.0655911179772888e+00
      - -1.2909944487358054e+00
      - 2.0655911179772888e+00
      - -1.2909944487358054e+00
      - 2.0655911179772888e+00
      - -1.2909944487358054e+00
      - 2.0655911179772888e+00
      - -1.2909944487358054e+00
      - 2.0655911179772888e+00
      - -1.2909944487358054e+00
      - 2.0655911179772888e+00
      - -1.2909944487358054e+00
      - 2.0655911179772888e+00
      - -1.2909944487358054e+00
      - 2.0655911179772888e+00
      - -7.7459666924148329e-01
      - 2.0655911179772888e+00
      - -7.7459666924148329e-01
      - 2.0158105227158782e+00
      - -1.1338934190276815e+00
      - 2.0655911179772888e+00
      - -1.2909944487358054e+00
      - 2.0655911179772888e+00
      - -1.2909944487358054e+00
      - 2.0655911179772888e+00
      - -1.2909944487358054e+00
      - 2.0158105227158782e+00
      - -1.1338934190276815e+00
      - 2.0158105227158782e+00
      - -1.1338934190276815e+00
      - 2.
      - -1.
      - 2.0158105227158782e+00
      - -8.8191710368819676e-01
      - 2.0158105227158782e+00
      - -8.8191710368819676e-01
      - 2.
      - -1.
      - 2.0158105227158782e+00
      - -1.1338934190276815e+00
      - 2.0655911179772888e+00
      - -1.2909944487358054e+00
      - 2.0158105227158782e+00
      - -1.1338934190276815e+00
      - 2.0655911179772888e+00
      - -1.2909944487358054e+00
      - 2.0655911179772888e+00
      - -1.2909944487358054e+00
      - 2.0158105227158782e+00
      - -1.1338934190276815e+00
      - 2.0655911179772888e+00
      - -7.7459666924148329e-01
      - 2.0158105227158782e+00
      - -8.8191710368819676e-01
      - 2.0655911179772888e+00
      - -1.2909944487358054e+00
      - 2.0655911179772888e+00
      - -1.2909944487358054e+00
      - 2.0655911179772888e+00
      - -1.2909944487358054e+00
      - 2.0655911179772888e+00
      - -1.2909944487358054e+00
      - 2.0655911179772888e+00
      - -1.2909944487358054e+00
      - 2.0655911179772888e+00
      - -1.2909944487358054e+00
      - 2.0655911179772888e+00
      - -1.2909944487358054e+00
      - 2.0655911179772888e+00
      - -1.2909944487358054e+00
      - 2.0655911179772888e+00
      - -1.2909944487358054e+00
      - 2.0655911179772888e+00
      - -1.2909944487358054e+00
      - 2.0655911179772888e+00
      - -1.2909944487358054e+00
      - 2.0655911179772888e+00
      - -1.2909944487358054e+00
      - 2.0158105227158782e+00
      - -8.8191710368819676e-01
      - 2.1574395598823748e+00
      - -6.7419986246324215e-01
      - 2.0655911179772888e+00
      - -1.2909944487358054e+00
      - 2.0655911179772888e+00
      - -1.2909944487358054e+00
      - 2.0655911179772888e+00
      - -1.2909944487358054e+00
      - 2.0158105227158782e+00
      - -1.1338934190276815e+00
      - 2.0655911179772888e+00
      - -1.2909944487358054e+00
      - 2.0158105227158782e+00
      - -1.1338934190276815e+00
      - 2.
      - -1.
      - 2.0158105227158782e+00
      - -8.8191710368819676e-01
      - 2.
      - -1.
      - 2.0158105227158782e+00
      - -8.8191710368819676e-01
      - 2.0158105227158782e+00
      - -1.1338934190276815e+00
      - 2.0158105227158782e+00
      - -1.1338934190276815e+00
      - 2.0655911179772888e+00
      - -1.2909944487358054e+00
      - 2.0158105227158782e+00
      - -1.1338934190276815e+00
      - 2.0158105227158782e+00
      - -1.1338934190276815e+00
      - 2.0655911179772888e+00
      - -7.7459666924148329e-01
      - 2.0655911179772888e+00
      - -7.7459666924148329e-01
      - 2.0655911179772888e+00
      - -1.2909944487358054e+00
      - 2.0655911179772888e+00
      - -1.2909944487358054e+00
      - 2.0655911179772888e+00
      - -1.2909944487358054e+00
      - 2.0655911179772888e+00
      - -1.2909944487358054e+00
      - 2.0655911179772888e+00
      - -1.2909944487358054e+00
      - 2.0655911179772888e+00
      - -1.2909944487358054e+00
      - 2.0655911179772888e+00
      - -1.2909944487358054e+00
      - 2.0655911179772888e+00
      - -1.2909944487358054e+00
      - 2.0655911179772888e+00
      - -1.2909944487358054e+00
      - 2.0655911179772888e+00
      - -1.2909944487358054e+00
      - 2.0655911179772888e+00
      - -1.2909944487358054e+00
      - 2.0655911179772888e+00
      - -1.2909944487358054e+00
      - 2.0655911179772888e+00
      - -1.2909944487358054e+00
      - 2.0655911179772888e+00
      - -1.2909944487358054e+00
      - 2.1574395598823748e+00
      - -6.7419986246324215e-01
      - 2.0655911179772888e+00
      - -7.7459666924148329e-01
      - 2.0655911179772888e+00
      - -1.2909944487358054e+00
      - 2.0655911179772888e+00
      - -1.2909944487358054e+00
      - 2.0655911179772888e+00
      - -1.2909944487358054e+00
      - 2.0158105227158782e+00
      - -1.1338934190276815e+00
      - 2.0158105227158782e+00
      - -1.1338934190276815e+00
      - 2.0158105227158782e+00
      - -8.8191710368819676e-01
      - 2.
      - -1.
      - 2.
      - -1.
      - 2.
      - -1.
      - 2.
      - -1.
      - 2.0158105227158782e+00
      - -1.1338934190276815e+00
      - 2.0655911179772888e+00
      - -1.2909944487358054e+00
      - 2.0655911179772888e+00
      - -1.2909944487358054e+00
      - 2.
      - -1.
      - 2.0158105227158782e+00
      - -8.8191710368819676e-01
      - 2.0158105227158782e+00
      - -8.8191710368819676e-01
      - 2.0158105227158782e+00
      - -1.1338934190276815e+00
      - 2.0655911179772888e+00
      - -1.2909944487358054e+00
      - 2.0655911179772888e+00
      - -1.2909944487358054e+00
      - 2.0655911179772888e+00
      - -1.2909944487358054e+00
      - 2.0655911179772888e+00
      - -1.2909944487358054e+00
      - 2.0655911179772888e+00
      - -1.2909944487358054e+00
      - 2.0655911179772888e+00
      - -1.2909944487358054e+00
      - 2.0655911179772888e+00
      - -1.2909944487358054e+00
      - 2.0655911179772888e+00
      - -1.2909944487358054e+00
      - 2.0655911179772888e+00
      - -1.2909944487358054e+00
      - 2.0655911179772888e+00
      - -1.2909944487358054e+00
      - 2.0655911179772888e+00
      - -1.2909944487358054e+00
      - 2.0655911179772888e+00
      - -1.2909944487358054e+00
      - 2.0158105227158782e+00
      - -1.1338934190276815e+00
      - 2.0158105227158782e+00
      - -8.8191710368819676e-01
      - 2.1574395598823748e+00
      - -6.7419986246324215e-01
      - 2.0655911179772888e+00
      - -1.2909944487358054e+00
      - 2.0655911179772888e+00
      - -1.2909944487358054e+00
      - 2.0655911179772888e+00
      - -1.2909944487358054e+00
      - 2.0158105227158782e+00
      - -1.1338934190276815e+00
      - 2.
      - -1.
      - 2.
      - -1.
      - 2.
      - -1.
      - 2.0158105227158782e+00
      - -8.8191710368819676e-01
      - 2.
      - -1.
      - 2.0158105227158782e+00
      - -1.1338934190276815e+00
      - 2.
      - -1.
      - 2.0655911179772888e+00
      - -1.2909944487358054e+00
      - 2.0655911179772888e+00
      - -1.2909944487358054e+00
      - 2.0655911179772888e+00
      - -7.7459666924148329e-01
      - 2.0655911179772888e+00
      - -7.7459666924148329e-01
      - 2.0655911179772888e+00
      - -1.2909944487358054e+00
      - 2.0158105227158782e+00
      - -1.1338934190276815e+00
      - 2.0655911179772888e+00
      - -1.2909944487358054e+00
      - 2.0655911179772888e+00
      - -1.2909944487358054e+00
      - 2.0655911179772888e+00
      - -1.2909944487358054e+00
      - 2.0655911179772888e+00
      - -1.2909944487358054e+00
      - 2.0655911179772888e+00
      - -1.2909944487358054e+00
      - 2.0655911179772888e+00
      - -1.2909944487358054e+00
      - 2.0655911179772888e+00
      - -1.2909944487358054e+00
      - 2.0655911179772888e+00
      - -1.2909944487358054e+00
      - 2.0655911179772888e+00
      - -1.2909944487358054e+00
      - 2.0655911179772888e+00
      - -1.2909944487358054e+00
      - 2.0655911179772888e+00
      - -1.2909944487358054e+00
      - 2.0655911179772888e+00
      - -1.2909944487358054e+00
      - 2.0158105227158782e+00
      - -1.1338934190276815e+00
      - 2.0158105227158782e+00
      - -1.1338934190276815e+00
      - 2.0158105227158782e+00
      - -8.8191710368819676e-01
      - 2.0655911179772888e+00
      - -7.7459666924148329e-01
      - 2.0655911179772888e+00
      - -1.2909944487358054e+00
      - 2.0655911179772888e+00
      - -1.2909944487358054e+00
      - 2.
      - -1.
      - 2.0158105227158782e+00
      - -1.1338934190276815e+00
      - 2.
      - -1.
      - 2.0158105227158782e+00
      - -8.8191710368819676e-01
      - 2.0158105227158782e+00
      - -1.1338934190276815e+00
      - 2.
      - -1.
      - 2.0158105227158782e+00
      - -1.1338934190276815e+00
      - 2.0158105227158782e+00
      - -1.1338934190276815e+00
      - 2.0158105227158782e+00
      - -1.1338934190276815e+00
      - 2.0158105227158782e+00
      - -1.1338934190276815e+00
      - 2.0158105227158782e+00
      - -8.8191710368819676e-01
      - 2.0158105227158782e+00
      - -8.8191710368819676e-01
      - 2.0655911179772888e+00
      - -1.2909944487358054e+00
      - 2.0655911179772888e+00
      - -1.2909944487358054e+00
      - 2.0158105227158782e+00
      - -1.1338934190276815e+00
      - 2.0655911179772888e+00
      - -1.2909944487358054e+00
      - 2.0655911179772888e+00
      - -1.2909944487358054e+00
      - 2.0655911179772888e+00
      - -1.2909944487358054e+00
      - 2.0655911179772888e+00
      - -1.2909944487358054e+00
      - 2.0655911179772888e+00
      - -1.2909944487358054e+00
      - 2.0655911179772888e+00
      - -1.2909944487358054e+00
      - 2.0655911179772888e+00
      - -1.2909944487358054e+00
      - 2.0655911179772888e+00
      - -1.2909944487358054e+00
      - 2.0655911179772888e+00
      - -1.2909944487358054e+00
      - 2.0655911179772888e+00
      - -1.2909944487358054e+00
      - 2.0158105227158782e+00
      - -1.1338934190276815e+00
      - 2.0158105227158782e+00
      - -1.1338934190276815e+00
      - 2.0655911179772888e+00
      - -1.2909944487358054e+00
      - 2.0158105227158782e+00
      - -8.8191710368819676e-01
      - 2.0655911179772888e+00
      - -7.7459666924148329e-01
      - 2.0655911179772888e+00
      - -1.2909944487358054e+00
      - 2.0158105227158782e+00
      - -1.1338934190276815e+00
      - 2.0158105227158782e+00
      - -1.1338934190276815e+00
      - 2.0158105227158782e+00
      - -1.1338934190276815e+00
      - 2.
      - -1.
      - 2.0158105227158782e+00
      - -1.1338934190276815e+00
      - 2.0158105227158782e+00
      - -1.1338934190276815e+00
      - 2.
      - -1.
      - 2.0158105227158782e+00
      - -1.1338934190276815e+00
      - 2.0158105227158782e+00
      - -1.1338934190276815e+00
      - 2.0158105227158782e+00
      - -1.1338934190276815e+00
      - 2.1574395598823748e+00
      - -6.7419986246324215e-01
      - 2.0158105227158782e+00
      - -8.8191710368819676e-01
      - 2.0655911179772888e+00
      - -1.2909944487358054e+00
      - 2.0655911179772888e+00
      - -1.2909944487358054e+00
      - 2.0655911179772888e+00
      - -1.2909944487358054e+00
      - 2.
      - -1.
      - 2.0655911179772888e+00
      - -1.2909944487358054e+00
      - 2.0655911179772888e+00
      - -1.2909944487358054e+00
      - 2.0655911179772888e+00
      - -1.2909944487358054e+00
      - 2.0655911179772888e+00
      - -1.2909944487358054e+00
      - 2.0655911179772888e+00
      - -1.2909944487358054e+00
      - 2.0655911179772888e+00
      - -1.2909944487358054e+00
      - 2.0655911179772888e+00
      - -1.2909944487358054e+00
      - 2.0655911179772888e+00
      - -1.2909944487358054e+00
      - 2.0655911179772888e+00
      - -1.2909944487358054e+00
      - 2.0655911179772888e+00
      - -1.2909944487358054e+00
      - 2.
      - -1.
      - 2.0655911179772888e+00
      - -1.2909944487358054e+00
      - 2.0655911179772888e+00
      - -1.2909944487358054e+00
      - 2.0655911179772888e+00
      - -1.2909944487358054e+00
      - 2.0158105227158782e+00
      - -8.8191710368819676e-01
      - 2.1574395598823748e+00
      - -6.7419986246324215e-01
      - 2.0158105227158782e+00
      - -1.1338934190276815e+00
      - 2.0158105227158782e+00
      - -1.1338934190276815e+00
      - 2.0158105227158782e+00
      - -1.1338934190276815e+00
      - 2.
      - -1.
      - 2.0158105227158782e+00
      - -1.1338934190276815e+00
      - 2.0158105227158782e+00
      - -1.1338934190276815e+00
      - 2.0158105227158782e+00
      - -8.8191710368819676e-01
      - 2.0158105227158782e+00
      - -1.1338934190276815e+00
      - 2.0158105227158782e+00
      - -1.1338934190276815e+00
      - 2.
      - -1.
      - 2.0158105227158782e+00
      - -8.8191710368819676e-01
      - 2.0655911179772888e+00
      - -7.7459666924148329e-01
      - 2.0655911179772888e+00
      - -1.2909944487358054e+00
      - 2.0655911179772888e+00
      - -1.2909944487358054e+00
      - 2.0655911179772888e+00
      - -1.2909944487358054e+00
      - 2.0655911179772888e+00
      - -1.2909944487358054e+00
      - 2.
      - -1.
      - 2.0655911179772888e+00
      - -1.2909944487358054e+00
      - 2.0655911179772888e+00
      - -1.2909944487358054e+00
      - 2.0655911179772888e+00
      - -1.2909944487358054e+00
      - 2.0655911179772888e+00
      - -1.2909944487358054e+00
      - 2.0655911179772888e+00
      - -1.2909944487358054e+00
      - 2.0655911179772888e+00
      - -1.2909944487358054e+00
      - 2.0655911179772888e+00
      - -1.2909944487358054e+00
      - 2.0655911179772888e+00
      - -1.2909944487358054e+00
      - 2.
      - -1.
      - 2.0655911179772888e+00
      - -1.2909944487358054e+00
      - 2.0655911179772888e+00
      - -1.2909944487358054e+00
      - 2.0655911179772888e+00
      - -1.2909944487358054e+00
      - 2.0655911179772888e+00
      - -1.2909944487358054e+00
      - 2.0655911179772888e+00
      - -7.7459666924148329e-01
      - 2.0655911179772888e+00
      - -7.7459666924148329e-01
      - 2.0158105227158782e+00
      - -1.1338934190276815e+00
      - 2.0158105227158782e+00
      - -1.1338934190276815e+00
      - 2.0158105227158782e+00
      - -1.1338934190276815e+00
      - 2.0158105227158782e+00
      - -8.8191710368819676e-01
      - 2.0158105227158782e+00
      - -1.1338934190276815e+00
      - 2.0158105227158782e+00
      - -1.1338934190276815e+00
      - 2.0158105227158782e+00
      - -1.1338934190276815e+00
      - 2.0158105227158782e+00
      - -1.1338934190276815e+00
      - 2.0158105227158782e+00
      - -1.1338934190276815e+00
      - 2.1574395598823748e+00
      - -6.7419986246324215e-01
      - 2.0655911179772888e+00
      - -7.7459666924148329e-01
      - 2.0655911179772888e+00
      - -1.2909944487358054e+00
      - 2.0158105227158782e+00
      - -1.1338934190276815e+00
      - 2.0655911179772888e+00
      - -1.2909944487358054e+00
      - 2.0655911179772888e+00
      - -1.2909944487358054e+00
      - 2.0655911179772888e+00
      - -1.2909944487358054e+00
      - 2.0158105227158782e+00
      - -1.1338934190276815e+00
      - 2.0158105227158782e+00
      - -1.1338934190276815e+00
      - 2.0655911179772888e+00
      - -1.2909944487358054e+00
      - 2.0655911179772888e+00
      - -1.2909944487358054e+00
      - 2.0655911179772888e+00
      - -1.2909944487358054e+00
      - 2.0655911179772888e+00
      - -1.2909944487358054e+00
      - 2.0655911179772888e+00
      - -1.2909944487358054e+00
      - 2.0655911179772888e+00
      - -1.2909944487358054e+00
      - 2.0158105227158782e+00
      - -1.1338934190276815e+00
      - 2.0158105227158782e+00
      - -1.1338934190276815e+00
      - 2.0655911179772888e+00
      - -1.2909944487358054e+00
      - 2.0655911179772888e+00
      - -1.2909944487358054e+00
      - 2.0655911179772888e+00
      - -1.2909944487358054e+00
      - 2.0158105227158782e+00
      - -1.1338934190276815e+00
      - 2.0655911179772888e+00
      - -1.2909944487358054e+00
      - 2.0655911179772888e+00
      - -7.7459666924148329e-01
      - 2.1574395598823748e+00
      - -6.7419986246324215e-01
      - 2.0158105227158782e+00
      - -1.1338934190276815e+00
      - 2.0158105227158782e+00
      - -1.1338934190276815e+00
      - 2.0158105227158782e+00
      - -1.1338934190276815e+00
      - 2.0158105227158782e+00
      - -1.1338934190276815e+00
      - 2.0158105227158782e+00
      - -1.1338934190276815e+00
      - 2.0158105227158782e+00
      - -1.1338934190276815e+00
      - 2.
      - -1.
      - 2.
      - -1.
      - 2.0655911179772888e+00
      - -7.7459666924148329e-01
      - 2.0655911179772888e+00
      - -7.7459666924148329e-01
      - 2.0158105227158782e+00
      - -1.1338934190276815e+00
      - 2.0655911179772888e+00
      - -1.2909944487358054e+00
      - 2.0158105227158782e+00
      - -1.1338934190276815e+00
      - 2.0655911179772888e+00
      - -1.2909944487358054e+00
      - 2.0655911179772888e+00
      - -1.2909944487358054e+00
      - 2.0655911179772888e+00
      - -1.2909944487358054e+00
      - 2.0158105227158782e+00
      - -1.1338934190276815e+00
      - 2.0158105227158782e+00
      - -1.1338934190276815e+00
      - 2.0655911179772888e+00
      - -1.2909944487358054e+00
      - 2.0655911179772888e+00
      - -1.2909944487358054e+00
      - 2.0655911179772888e+00
      - -1.2909944487358054e+00
      - 2.0655911179772888e+00
      - -1.2909944487358054e+00
      - 2.0158105227158782e+00
      - -1.1338934190276815e+00
      - 2.0158105227158782e+00
      - -1.1338934190276815e+00
      - 2.0655911179772888e+00
      - -1.2909944487358054e+00
      - 2.0655911179772888e+00
      - -1.2909944487358054e+00
      - 2.0655911179772888e+00
      - -1.2909944487358054e+00
      - 2.0158105227158782e+00
      - -1.1338934190276815e+00
      - 2.0655911179772888e+00
      - -1.2909944487358054e+00
      - 2.0158105227158782e+00
      - -1.1338934190276815e+00
      - 2.0655911179772888e+00
      - -7.7459666924148329e-01
      - 2.1574395598823748e+00
      - -6.7419986246324215e-01
      - 2.0158105227158782e+00
      - -1.1338934190276815e+00
      - 2.
      - -1.
      - 2.0158105227158782e+00
      - -1.1338934190276815e+00
      - 2.0158105227158782e+00
      - -1.1338934190276815e+00
      - 2.0158105227158782e+00
      - -1.1338934190276815e+00
      - 2.0158105227158782e+00
      - -1.1338934190276815e+00
      - 2.0655911179772888e+00
      - -1.2909944487358054e+00
      - 2.1574395598823748e+00
      - -6.7419986246324215e-01
      - 2.0655911179772888e+00
      - -7.7459666924148329e-01
      - 2.0158105227158782e+00
      - -1.1338934190276815e+00
      - 2.0158105227158782e+00
      - -1.1338934190276815e+00
      - 2.0158105227158782e+00
      - -1.1338934190276815e+00
      - 2.0655911179772888e+00
      - -1.2909944487358054e+00
      - 2.0158105227158782e+00
      - -1.1338934190276815e+00
      - 2.0655911179772888e+00
      - -1.2909944487358054e+00
      - 2.0655911179772888e+00
      - -1.2909944487358054e+00
      - 2.0655911179772888e+00
      - -1.2909944487358054e+00
      - 2.0655911179772888e+00
      - -1.2909944487358054e+00
      - 2.0158105227158782e+00
      - -1.1338934190276815e+00
      - 2.0655911179772888e+00
      - -1.2909944487358054e+00
      - 2.0655911179772888e+00
      - -1.2909944487358054e+00
      - 2.0158105227158782e+00
      - -1.1338934190276815e+00
      - 2.0655911179772888e+00
      - -1.2909944487358054e+00
      - 2.0158105227158782e+00
      - -1.1338934190276815e+00
      - 2.0655911179772888e+00
      - -1.2909944487358054e+00
      - 2.0655911179772888e+00
      - -1.2909944487358054e+00
      - 2.0158105227158782e+00
      - -1.1338934190276815e+00
      - 2.0655911179772888e+00
      - -1.2909944487358054e+00
      - 2.0158105227158782e+00
      - -1.1338934190276815e+00
      - 2.0158105227158782e+00
      - -1.1338934190276815e+00
      - 2.0158105227158782e+00
      - -1.1338934190276815e+00
      - 2.0655911179772888e+00
      - -7.7459666924148329e-01
      - 2.1574395598823748e+00
      - -6.7419986246324215e-01
      - 2.0655911179772888e+00
      - -1.2909944487358054e+00
      - 2.0158105227158782e+00
      - -1.1338934190276815e+00
      - 2.0158105227158782e+00
      - -1.1338934190276815e+00
      - 2.0158105227158782e+00
      - -1.1338934190276815e+00
      - 2.0158105227158782e+00
      - -1.1338934190276815e+00
      - 2.0158105227158782e+00
      - -1.1338934190276815e+00
      - 2.0158105227158782e+00
      - -8.8191710368819676e-01
      - 2.0655911179772888e+00
      - -7.7459666924148329e-01
      - 2.0158105227158782e+00
      - -1.1338934190276815e+00
      - 2.0158105227158782e+00
      - -1.1338934190276815e+00
      - 2.0158105227158782e+00
      - -1.1338934190276815e+00
      - 2.0158105227158782e+00
      - -1.1338934190276815e+00
      - 2.0655911179772888e+00
      - -1.2909944487358054e+00
      - 2.0158105227158782e+00
      - -1.1338934190276815e+00
      - 2.0655911179772888e+00
      - -1.2909944487358054e+00
      - 2.0655911179772888e+00
      - -1.2909944487358054e+00
      - 2.0158105227158782e+00
      - -1.1338934190276815e+00
      - 2.0655911179772888e+00
      - -1.2909944487358054e+00
      - 2.0158105227158782e+00
      - -1.1338934190276815e+00
      - 2.0655911179772888e+00
      - -1.2909944487358054e+00
      - 2.0655911179772888e+00
      - -1.2909944487358054e+00
      - 2.0158105227158782e+00
      - -1.1338934190276815e+00
      - 2.0655911179772888e+00
      - -1.2909944487358054e+00
      - 2.0655911179772888e+00
      - -1.2909944487358054e+00
      - 2.0158105227158782e+00
      - -1.1338934190276815e+00
      - 2.0655911179772888e+00
      - -1.2909944487358054e+00
      - 2.0158105227158782e+00
      - -1.1338934190276815e+00
      - 2.0158105227158782e+00
      - -1.1338934190276815e+00
      - 2.0158105227158782e+00
      - -1.1338934190276815e+00
      - 2.0158105227158782e+00
      - -1.1338934190276815e+00
      - 2.0655911179772888e+00
      - -7.7459666924148329e-01
      - 2.0655911179772888e+00
      - -7.7459666924148329e-01
      - 2.0655911179772888e+00
      - -1.2909944487358054e+00
      - 2.0158105227158782e+00
      - -1.1338934190276815e+00
      - 2.0158105227158782e+00
      - -1.1338934190276815e+00
      - 2.0158105227158782e+00
      - -1.1338934190276815e+00
      - 2.0158105227158782e+00
      - -1.1338934190276815e+00
      - 2.0655911179772888e+00
      - -7.7459666924148329e-01
      - 2.0158105227158782e+00
      - -8.8191710368819676e-01
      - 2.0655911179772888e+00
      - -1.2909944487358054e+00
      - 2.0158105227158782e+00
      - -1.1338934190276815e+00
      - 2.0158105227158782e+00
      - -1.1338934190276815e+00
      - 2.0158105227158782e+00
      - -1.1338934190276815e+00
      - 2.0158105227158782e+00
      - -1.1338934190276815e+00
      - 2.0158105227158782e+00
      - -1.1338934190276815e+00
      - 2.0158105227158782e+00
      - -1.1338934190276815e+00
      - 2.0158105227158782e+00
      - -1.1338934190276815e+00
      - 2.0655911179772888e+00
      - -1.2909944487358054e+00
      - 2.0655911179772888e+00
      - -1.2909944487358054e+00
      - 2.0655911179772888e+00
      - -1.2909944487358054e+00
      - 2.0655911179772888e+00
      - -1.2909944487358054e+00
      - 2.0655911179772888e+00
      - -1.2909944487358054e+00
      - 2.0655911179772888e+00
      - -1.2909944487358054e+00
      - 2.0158105227158782e+00
      - -1.1338934190276815e+00
      - 2.0655911179772888e+00
      - -1.2909944487358054e+00
      - 2.0158105227158782e+00
      - -1.1338934190276815e+00
      - 2.0158105227158782e+00
      - -1.1338934190276815e+00
      - 2.0158105227158782e+00
      - -1.1338934190276815e+00
      - 2.0158105227158782e+00
      - -1.1338934190276815e+00
      - 2.0158105227158782e+00
      - -1.1338934190276815e+00
      - 2.0158105227158782e+00
      - -1.1338934190276815e+00
      - 2.0158105227158782e+00
      - -1.1338934190276815e+00
      - 2.0655911179772888e+00
      - -1.2909944487358054e+00
      - 2.0158105227158782e+00
      - -8.8191710368819676e-01
      - 2.0655911179772888e+00
      - -7.7459666924148329e-01
      - 2.0158105227158782e+00
      - -1.1338934190276815e+00
      - 2.0158105227158782e+00
      - -1.1338934190276815e+00
      - 2.0158105227158782e+00
      - -1.1338934190276815e+00
      - 2.
      - -1.
      - 2.0158105227158782e+00
      - -8.8191710368819676e-01
      - 2.0158105227158782e+00
      - -8.8191710368819676e-01
      - 2.0655911179772888e+00
      - -1.2909944487358054e+00
      - 2.0655911179772888e+00
      - -1.2909944487358054e+00
      - 2.0158105227158782e+00
      - -1.1338934190276815e+00
      - 2.0158105227158782e+00
      - -1.1338934190276815e+00
      - 2.0158105227158782e+00
      - -1.1338934190276815e+00
      - 2.0158105227158782e+00
      - -1.1338934190276815e+00
      - 2.0158105227158782e+00
      - -1.1338934190276815e+00
      - 2.0158105227158782e+00
      - -1.1338934190276815e+00
      - 2.
      - -1.
      - 2.0158105227158782e+00
      - -1.1338934190276815e+00
      - 2.
      - -1.
      - 2.0655911179772888e+00
      - -1.2909944487358054e+00
      - 2.0655911179772888e+00
      - -1.2909944487358054e+00
      - 2.
      - -1.
      - 2.0158105227158782e+00
      - -1.1338934190276815e+00
      - 2.
      - -1.
      - 2.0158105227158782e+00
      - -1.1338934190276815e+00
      - 2.0158105227158782e+00
      - -1.1338934190276815e+00
      - 2.0158105227158782e+00
      - -1.1338934190276815e+00
      - 2.0158105227158782e+00
      - -1.1338934190276815e+00
      - 2.0158105227158782e+00
      - -1.1338934190276815e+00
      - 2.0158105227158782e+00
      - -1.1338934190276815e+00
      - 2.0655911179772888e+00
      - -1.2909944487358054e+00
      - 2.0655911179772888e+00
      - -1.2909944487358054e+00
      - 2.0158105227158782e+00
      - -8.8191710368819676e-01
      - 2.0655911179772888e+00
      - -7.7459666924148329e-01
      - 2.0158105227158782e+00
      - -1.1338934190276815e+00
      - 2.0158105227158782e+00
      - -1.1338934190276815e+00
      - 2.0158105227158782e+00
      - -1.1338934190276815e+00
      - 2.1574395598823748e+00
      - -6.7419986246324215e-01
      - 2.0655911179772888e+00
      - -7.7459666924148329e-01
      - 2.0158105227158782e+00
      - -1.1338934190276815e+00
      - 2.0158105227158782e+00
      - -1.1338934190276815e+00
      - 2.0158105227158782e+00
      - -1.1338934190276815e+00
      - 2.0158105227158782e+00
      - -1.1338934190276815e+00
      - 2.0158105227158782e+00
      - -8.8191710368819676e-01
      - 2.
      - -1.
      - 2.
      - -1.
      - 2.
      - -1.
      - 2.
      - -1.
      - 2.
      - -1.
      - 2.0158105227158782e+00
      - -8.8191710368819676e-01
      - 2.
      - -1.
      - 2.
      - -1.
      - 2.
      - -1.
      - 2.0158105227158782e+00
      - -8.8191710368819676e-01
      - 2.0158105227158782e+00
      - -8.8191710368819676e-01
      - 2.
      - -1.
      - 2.
      - -1.
      - 2.
      - -1.
      - 2.
      - -1.
      - 2.
      - -1.
      - 2.0158105227158782e+00
      - -8.8191710368819676e-01
      - 2.0158105227158782e+00
      - -1.1338934190276815e+00
      - 2.0158105227158782e+00
      - -1.1338934190276815e+00
      - 2.0158105227158782e+00
      - -1.1338934190276815e+00
      - 2.0158105227158782e+00
      - -1.1338934190276815e+00
      - 2.0655911179772888e+00
      - -7.7459666924148329e-01
      - 2.1574395598823748e+00
      - -6.7419986246324215e-01
      - 2.0158105227158782e+00
      - -1.1338934190276815e+00
      - 2.
      - -1.
      - 2.0655911179772888e+00
      - -7.7459666924148329e-01
      - 2.0655911179772888e+00
      - -7.7459666924148329e-01
      - 2.0655911179772888e+00
      - -7.7459666924148329e-01
      - 2.0655911179772888e+00
      - -7.7459666924148329e-01
      - 2.0655911179772888e+00
      - -7.7459666924148329e-01
      - 2.0655911179772888e+00
      - -7.7459666924148329e-01
      - 2.0655911179772888e+00
      - -7.7459666924148329e-01
      - 2.0655911179772888e+00
      - -7.7459666924148329e-01
      - 2.3094010767585034e+00
      - -5.7735026918962584e-01
      - 2.1574395598823748e+00
      - -6.7419986246324215e-01
      - 2.1574395598823748e+00
      - -6.7419986246324215e-01
      - 2.1574395598823748e+00
      - -6.7419986246324215e-01
      - 2.1574395598823748e+00
      - -6.7419986246324215e-01
      - 2.3094010767585034e+00
      - -5.7735026918962584e-01
      - 2.3094010767585034e+00
      - -5.7735026918962584e-01
      - 2.3094010767585034e+00
      - -5.7735026918962584e-01
      - 2.3094010767585034e+00
      - -5.7735026918962584e-01
      - 2.1574395598823748e+00
      - -6.7419986246324215e-01
      - 2.1574395598823748e+00
      - -6.7419986246324215e-01
      - 2.1574395598823748e+00
      - -6.7419986246324215e-01
      - 2.1574395598823748e+00
      - -6.7419986246324215e-01
      - 2.3094010767585034e+00
      - -5.7735026918962584e-01
      - 2.0655911179772888e+00
      - -7.7459666924148329e-01
      - 2.0655911179772888e+00
      - -7.7459666924148329e-01
      - 2.0655911179772888e+00
      - -7.7459666924148329e-01
      - 2.0655911179772888e+00
      - -7.7459666924148329e-01
      - 2.0655911179772888e+00
      - -7.7459666924148329e-01
      - 2.0655911179772888e+00
      - -7.7459666924148329e-01
      - 2.0655911179772888e+00
      - -7.7459666924148329e-01
      - 2.1574395598823748e+00
      - -6.7419986246324215e-01
      - 2.
      - -1.
      - 2.1574395598823748e+00
      - -6.7419986246324215e-01
      - 2.1574395598823748e+00
      - -6.7419986246324215e-01
      - 2.1574395598823748e+00
      - -6.7419986246324215e-01
      - 2.1574395598823748e+00
      - -6.7419986246324215e-01
      - 2.1574395598823748e+00
      - -6.7419986246324215e-01
      - 2.1574395598823748e+00
      - -6.7419986246324215e-01
      - 2.1574395598823748e+00
      - -6.7419986246324215e-01
      - 2.1574395598823748e+00
      - -6.7419986246324215e-01
      - 2.1574395598823748e+00
      - -6.7419986246324215e-01
      - 2.1574395598823748e+00
      - -6.7419986246324215e-01
      - 2.1574395598823748e+00
      - -6.7419986246324215e-01
      - 2.1574395598823748e+00
      - -6.7419986246324215e-01
      - 2.5620504608813941e+00
      - -4.8038446141526137e-01
      - 2.3094010767585034e+00
      - -5.7735026918962584e-01
      - 2.3094010767585034e+00
      - -5.7735026918962584e-01
      - 2.5620504608813941e+00
      - -4.8038446141526137e-01
      - 3.0237157840738176e+00
      - -3.7796447300922720e-01
      - 2.3094010767585034e+00
      - -5.7735026918962584e-01
      - 2.3094010767585034e+00
      - -5.7735026918962584e-01
      - 2.5620504608813941e+00
      - -4.8038446141526137e-01
      - 2.1574395598823748e+00
      - -6.7419986246324215e-01
      - 2.1574395598823748e+00
      - -6.7419986246324215e-01
      - 2.1574395598823748e+00
      - -6.7419986246324215e-01
      - 2.1574395598823748e+00
      - -6.7419986246324215e-01
      - 2.1574395598823748e+00
      - -6.7419986246324215e-01
      - 2.1574395598823748e+00
      - -6.7419986246324215e-01
      - 2.1574395598823748e+00
      - -6.7419986246324215e-01
      - 2.1574395598823748e+00
      - -6.7419986246324215e-01
      - 2.1574395598823748e+00
      - -6.7419986246324215e-01
      - 2.1574395598823748e+00
      - -6.7419986246324215e-01
      - 2.1574395598823748e+00
      - -6.7419986246324215e-01
      - 2.1574395598823748e+00
      - -6.7419986246324215e-01
   output_scale:
      - 5.2631578947368418e-01
      - 4.9999999999999994e-01
      - 1.1349192781328980e+29
      - 1.0781733142262531e+29
      - 3.4267670702071887e+32
      - 3.2554287166968292e+32
      - 9.7805920195490553e+27
      - 9.2915624185716020e+27
   inv_output_scale:
      - 1.8999999999999999e+00
      - -9.4999999999999996e-01
      - 8.8111993449009065e-30
      - -9.4999999999999996e-01
      - 2.9182024325322414e-33
      - -9.4999999999999996e-01
      - 1.0224329958771821e-28
      - -9.4999999999999996e-01
   weights:
      -
         - -1.7566319265145885e-02
         - -3.1716073109035126e-02
         - 3.3426577960935323e-02
         - 6.0024785802969084e-02
         - 1.4834776477874815e-02
         - -3.9247149033812170e-02
         - 2.7682795511105106e-02
         - -6.4895762254523501e-04
         - -1.9533520390182645e-02
         - 4.6274876817640059e-03
         - 2.6346942439846471e-03
         - 3.2012300181720139e-02
         - -1.5622167230522114e-03
         - 3.8295212455796278e-02
         - -8.8259579405360992e-03
         - 3.1909740705519961e-02
         - -1.5325126246156279e-02
         - -3.0303443046765331e-02
         - 3.0182994693631924e-02
         - 5.9467779480757481e-02
         - 1.5602883378013929e-02
         - -3.8670681139571547e-02
         - 2.7880277373386539e-02
         - -2.3290304871653802e-03
         - -1.9136341826598385e-02
         - 5.6414854969376402e-03
         - 1.2491241970038346e-03
         - 3.4880871915853658e-02
         - -1.8682297883199366e-03
         - 3.5389645498974907e-02
         - -5.8110674562169579e-03
         - 3.0783242064667170e-02
         - -1.6696495147559078e-02
         - -2.9180091476242471e-02
         - 3.2147251308815593e-02
         - 5.9389046149927606e-02
         - 1.6384252442138821e-02
         - -3.6158458131580876e-02
         - 2.9234797853104150e-02
         - -3.1459927198730442e-03
         - -2.1877111389991145e-02
         - 6.7482735573904801e-03
         - 2.0403976123305376e-03
         - 3.2178883190785219e-02
         - 8.2837558025037217e-04
         - 3.8220583194703915e-02
         - -7.0550271968730649e-03
         - 3.2272899521050592e-02
         - -1.7599298224061765e-02
         - -2.9565389633175485e-02
         - 3.0732974422052750e-02
         - 5.7506830502227275e-02
         - 1.3827673428537119e-02
         - -3.6864255787198250e-02
         - 2.8613052921569834e-02
         - -3.1044031321961784e-03
         - -2.1620922403222210e-02
         - 5.2913682841360613e-03
         - 1.6995900547202912e-03
         - 3.4197976091325834e-02
         - -3.6962719408840125e-04
         - 3.6109500428170772e-02
         - -7.7178080088649969e-03
         - 3.2457102927073149e-02
         - -1.7410603826834046e-02
         - -3.1971452454954460e-02
         - 3.0507082034437659e-02
         - 5.8394453610486362e-02
         - 1.4314274931172830e-02
         - -3.8977131727147105e-02
         - 2.5904837933678412e-02
         - -1.7373756637030150e-04
         - -2.1097167029331999e-02
         - 7.8151616703934692e-03
         - 2.4838907223538524e-03
         - 3.4959583093541670e-02
         - 1.1598076196982329e-03
         - 3.6538852060075587e-02
         - -7.4116917111764023e-03
         - 2.9778614792984104e-02
         - -1.6974225001926805e-02
         - -3.2512219964302341e-02
         - 2.9630464158517646e-02
         - 5.7608021947619291e-02
         - 1.6923156841969711e-02
         - -3.8574951758889406e-02
         - 2.7319975004337353e-02
         - -6.8032075748600490e-04
         - -2.1061835747775818e-02
         - 6.9582065599272051e-03
         - 3.4428225135141048e-03
         - 3.5378288386534611e-02
         - -8.1299267423696792e-04
         - 3.5928968632888518e-02
         - -7.9630505272077351e-03
         - 2.9241692925122877e-02
         - -1.4233244477957591e-02
         - -2.9384320105580817e-02
         - 3.0004225170255465e-02
         - 6.0497269427144361e-02
         - 1.6573865444944227e-02
         - -3.7042496154733817e-02
         - 2.7502841015629637e-02
         - -5.5372370027435651e-04
         - -1.9708373844540421e-02
         - 5.2357230772752915e-03
         - 2.3908818720717209e-03
         - 3.4630969474713828e-02
         - -1.3959192105339039e-03
         - 3.7193766255893414e-02
         - -7.5439866764203563e-03
         - 3.2375690489974129e-02
         - -1.6747742194597948e-02
         - -3.0584383320781391e-02
         - 3.0367557748345098e-02
         - 5.8156807614899254e-02
         - 1.6173626717569591e-02
         - -3.7542098804209209e-02
         - 2.6609871827734687e-02
         - -7.4294621043843867e-04
         - -2.0960135303470493e-02
         - 5.1747996971419283e-03
         - 1.1480423472467103e-03
         - 3.4956822948617912e-02
         - -2.0111863550679181e-03
         - 3.5811631293380032e-02
         - -9.5522152438697536e-03
         - 3.0071479981424884e-02
         - -1.6877685822664672e-02
         - -3.1685171362731246e-02
         - 3.2033830594494973e-02
         - 5.7501226615859442e-02
         - 1.5588672045626180e-02
         - -3.9607393090673390e-02
         - 2.8512862658506180e-02
         - -1.5989560034011170e-03
         - -1.9630733426015113e-02
         - 4.8526387843452271e-03
         - 7.4333241916383264e-04
         - 3.2783762313862271e-02
         - -2.0916842426099490e-03
         - 3.7401682060106974e-02
         - -9.5476101656615173e-03
         - 2.9107879277617498e-02
         - -1.4306510340708812e-02
         - -2.9253737845644671e-02
         - 3.0868710480022900e-02
         - 5.8454074992555803e-02
         - 1.5903301571579889e-02
         - -3.7529624842390905e-02
         - 2.9057796896694021e-02
         - -1.8135970033547049e-03
         - -2.1368310936742959e-02
         - 8.0607626607075416e-03
         - 3.1118450717761890e-03
         - 3.4038937593697728e-02
         - -1.0959910095225736e-04
         - 3.7281785635497909e-02
         - -7.7179680247896742e-03
         - 2.9719751679386952e-02
         - -1.4187290262203700e-02
         - -3.1378425266191529e-02
         - 3.3407143545388603e-02
         - 5.9764986823140555e-02
         - 1.4701138279880588e-02
         - -3.7319637504706502e-02
         - 2.7383780526708229e-02
         - -1.8794429580942082e-03
         - -2.0632609256971409e-02
         - 5.4452876667037513e-03
         - 1.9891537394738155e-03
         - 3.3845355150550045e-02
         - -7.6708081318755980e-05
         - 3.6246179144785763e-02
         - -7.9105135523171253e-03
         - 3.0146412154752857e-02
         - -1.5502352024110802e-02
         - -3.2165222271500531e-02
         - 3.1012460511455252e-02
         - 5.8365424932474201e-02
         - 1.5921100545011647e-02
         - -3.6863791222901204e-02
         - 2.7609107661857292e-02
         - -2.5693293243873394e-03
         - -1.9694628800907828e-02
         - 4.6434927712895955e-03
         - 1.1294372417947180e-03
         - 3.3851295683105721e-02
         - 1.2614599306573523e-03
         - 3.8629628633523976e-02
         - -9.6189254271753753e-03
         - 3.0213982813918433e-02
         - 5.6323541286326641e-02
         - -2.6714065223315663e-02
         - -5.2686045064561965e-04
         - -1.0574266704346098e-01
         - -7.0796230653691894e-02
         - -6.3823795328860553e-03
         - -1.2077857856206606e-01
         - -2.2728810284718303e-02
         - -7.9017004366535540e-02
         - -2.9246660443283504e-02
         - -1.4193804464907362e-02
         - -1.9371691383235115e-01
         - -2.1774318701661143e-02
         - -1.0175888017811317e-01
         - 1.7644717123499291e-02
         - 2.5347435904487438e-02
         - 1.3152605519088874e-02
         - -1.9591750273008163e-02
         - -8.0849961367397433e-03
         - 8.4037313587567317e-02
         - -6.3505646336953631e-03
         - -2.7770931954379662e-03
         - 4.4860193926912054e-02
         - -1.4731918100660497e-02
         - 2.4544151759910239e-02
         - -1.3172939627538615e-02
         - -2.5692954714041559e-02
         - 2.1759268428411107e-02
         - -9.7304554502380663e-03
         - 6.1510925155772202e-02
         - 2.0084326224981842e-02
         - 1.8790521854730367e-02
         - -6.5728690281134428e-02
         - -2.8632229548756553e-02
         - -1.1447687527730696e-03
         - 8.3026120986293750e-02
         - -2.2275505277975266e-03
         - -6.1485125610893435e-03
         - 8.0868625160135085e-02
         - -1.7168503264173213e-02
         - 7.3209793241872129e-02
         - -1.2409827777143742e-02
         - -3.2063951991010246e-02
         - 7.1265072235408025e-02
         - -1.3707272538613893e-02
         - 9.1792200457157969e-02
         - 7.6702823972986485e-03
         - 2.6930722158467563e-02
         - -3.2718734060046793e-02
         - -3.3458827172940062e-02
         - -6.1625751993753504e-03
         - 1.4933814256425001e-01
         - 2.2123227741256933e-02
         - 6.5189653862602762e-03
         - 1.4232283403967921e-01
         - -1.2019237452906509e-02
         - 4.2888355518874557e-02
         - -9.3576173197153639e-03
         - -2.7258459681275181e-02
         - 1.2805252154210367e-01
         - -1.2377627931120756e-02
         - 1.4382537401282763e-01
         - 1.1554928567606855e-02
         - 3.1963607582247019e-02
         - 4.8416484520558224e-02
         - -2.4681712793501790e-02
         - -1.1793231204137200e-02
         - 1.4667102511888280e-01
         - 1.8837812208196972e-02
         - 1.0786552018450871e-02
         - 9.8287866335217161e-02
         - -1.1699342394887213e-02
         - -5.7335500608452772e-03
         - -8.8168325466861080e-03
         - -2.2242243853254989e-02
         - 7.3056732231989330e-02
         - -8.1960147753702903e-03
         - 1.0919291196754860e-01
         - 2.2082297530836712e-02
         - 2.4046573879015008e-02
         - 1.4276985670127029e-02
         - -2.0378106145543213e-02
         - -4.6375144200911135e-03
         - 8.3366261845043546e-02
         - -3.9911665291853925e-03
         - -3.4634733059572746e-03
         - 4.2776301034004177e-02
         - -1.2308879822063769e-02
         - 2.1763160683782728e-02
         - -1.4619116160091662e-02
         - -2.9265348824605492e-02
         - 2.3318876108374253e-02
         - -1.1034074245773023e-02
         - 6.3668328717616587e-02
         - 1.8850564479823705e-02
         - 1.8639018386105072e-02
         - 1.3463400221793615e-02
         - -1.9940801501134555e-02
         - -4.8680627626190619e-03
         - 8.4281147024811556e-02
         - -5.0756911710342877e-03
         - -4.7662147180045520e-03
         - 4.4707060009042635e-02
         - -1.3074366383616618e-02
         - 2.1967723640382408e-02
         - -1.1275247493457858e-02
         - -2.7815573185515592e-02
         - 2.3237086580748332e-02
         - -1.1133576494638085e-02
         - 6.1639684039329255e-02
         - 1.9370883187934711e-02
         - 2.0380352384152305e-02
         - 5.7043939216650887e-02
         - -2.8738268864862047e-02
         - -2.2113597104194286e-04
         - -1.0488700733661481e-01
         - -7.0112937545098702e-02
         - -7.5281860287496997e-03
         - -1.2011034651115376e-01
         - -2.4641682832961590e-02
         - -7.8047429117982195e-02
         - -2.7661539175721724e-02
         - -1.1946103975732191e-02
         - -1.9344327209761472e-01
         - -1.9210391280558358e-02
         - -1.0141838968063573e-01
         - 1.8918204981313368e-02
         - 2.7889775596688759e-02
         - -1.4568220871837860e-02
         - -3.0076158509764885e-02
         - 3.0367495394657343e-02
         - 5.9707955567524944e-02
         - 1.5535789961057761e-02
         - -3.8628091321200680e-02
         - 2.6962624317478937e-02
         - -2.1661669694399170e-03
         - -2.2146936251325040e-02
         - 7.2264966901919546e-03
         - 1.1486417818496477e-03
         - 3.2816569452307924e-02
         - -2.3220291335503125e-03
         - 3.6380595188433486e-02
         - -6.9546374740602143e-03
         - 2.9152737313398475e-02
         - -1.6897351670719648e-02
         - -2.9362756430422635e-02
         - 2.9996695192292030e-02
         - 5.8143510286532037e-02
         - 1.5107243060747724e-02
         - -3.7202360993094985e-02
         - 2.5887145161326855e-02
         - -2.0002096166081770e-03
         - -2.2002981883494751e-02
         - 5.0348488756672641e-03
         - 3.4475006025579892e-03
         - 3.5153391684710510e-02
         - -2.0088451866453273e-04
         - 3.5284281607161828e-02
         - -6.7440029248082480e-03
         - 2.9931211511874611e-02
         - -1.6277784112575817e-02
         - -2.9716823197298126e-02
         - 2.9614573046054825e-02
         - 6.0491215434122857e-02
         - 1.6055277179313258e-02
         - -3.6969893060876502e-02
         - 2.8801522749211744e-02
         - -1.7462778951125588e-03
         - -2.0268388017789792e-02
         - 5.3338501501832992e-03
         - 7.8168687499148147e-04
         - 3.3090836794773766e-02
         - -8.5958820834336136e-05
         - 3.8672759032999458e-02
         - -6.5269292382072498e-03
         - 3.0586968682348697e-02
         - -1.7207262209319455e-02
         - -2.9440071775971074e-02
         - 3.0855235847166106e-02
         - 5.7877402953545300e-02
         - 1.5814194966849150e-02
         - -3.8226792322336084e-02
         - 2.5611829615874042e-02
         - -7.9911823225106533e-05
         - -1.9173977672590468e-02
         - 6.1359901633090720e-03
         - 1.0997696447221589e-03
         - 3.2972590613107249e-02
         - 1.0074445138428456e-03
         - 3.6881593668443326e-02
         - -7.1082583172846613e-03
         - 2.9914222017913397e-02
         - -1.4393247589209826e-02
         - -3.1591315927342406e-02
         - 3.3148227013855586e-02
         - 5.7991314561570244e-02
         - 1.5073120176004722e-02
         - -3.8926619521682970e-02
         - 2.5399804521636205e-02
         - -1.0312087409743626e-03
         - -2.0286924135744577e-02
         - 7.2137618391055411e-03
         - 2.3057634605760402e-03
         - 3.3418910078958926e-02
         - -1.9258332869120801e-03
         - 3.8341325211014902e-02
         - -7.4959496974621436e-03
         - 3.1643675728928365e-02
         - -1.7548367958503824e-02
         - -3.2004826639772672e-02
         - 3.2031108982467298e-02
         - 5.8909374667258214e-02
         - 1.4066752874131611e-02
         - -3.8379499819304691e-02
         - 2.6370678746921304e-02
         - -5.0662388930768075e-05
         - -2.2482156887540263e-02
         - 7.8699764323860825e-03
         - 8.4401424298202494e-04
         - 3.2293417348494065e-02
         - 1.1364274143961968e-03
         - 3.7872577473670309e-02
         - -7.9702238549345193e-03
         - 2.8997891593667165e-02
         - -1.7391514468261930e-02
         - -3.0333426398855504e-02
         - 3.3441533347278965e-02
         - 5.7877746471447812e-02
         - 1.6732375846361273e-02
         - -3.8425730857403098e-02
         - 2.6237753077674890e-02
         - -8.0517468183449227e-04
         - -2.0547683848725590e-02
         - 5.6513128300178603e-03
         - 1.5375978944564632e-03
         - 3.2431806391856340e-02
         - -6.0947233483360226e-04
         - 3.6481495720642167e-02
         - -8.7213679976755158e-03
         - 3.0938839431379962e-02
         - -1.7569476184968579e-02
         - -2.9061171436735488e-02
         - 3.2294044642525041e-02
         - 5.7422724339421909e-02
         - 1.4919486443482228e-02
         - -3.9419327489947975e-02
         - 2.5676102561552651e-02
         - -2.5479259540520331e-03
         - -2.0454065882844954e-02
         - 7.5378791271277484e-03
         - 4.4402166409805081e-04
         - 3.4858483210272399e-02
         - -1.8159515031972758e-04
         - 3.6258892614195369e-02
         - -8.7077423128589064e-03
         - 2.9447424699821225e-02
         - -1.4231088923290268e-02
         - -3.2470821308664181e-02
         - 3.0252854306503298e-02
         - 5.8828750233838385e-02
         - 1.5098690383176181e-02
         - -3.8976845314043898e-02
         - 2.9000031712939106e-02
         - -1.1651902301122469e-03
         - -2.0370747220677252e-02
         - 8.0626460978727964e-03
         - 1.3628630209070185e-03
         - 3.4345075343155985e-02
         - -9.9127223771805929e-04
         - 3.6048627423209308e-02
         - -6.4359905892762935e-03
         - 3.0695477787782637e-02
         - -1.7348913344554854e-02
         - -2.9607568672673126e-02
         - 3.2679248140219240e-02
         - 5.9303276016297250e-02
         - 1.4692369472850674e-02
         - -3.8333734595841940e-02
         - 2.8236258126486176e-02
         - -1.7290003055077693e-03
         - -2.1333824739604299e-02
         - 6.8336396481080228e-03
         - 5.8084930257606309e-04
         - 3.2745994063012492e-02
         - 5.0742905624859150e-04
         - 3.6087824812078902e-02
         - -6.4185107958763359e-03
         - 3.0286139929072434e-02
         - -1.7325553650503842e-02
         - -3.0141424996846081e-02
         - 3.0096866414078490e-02
         - 5.9100380826639216e-02
         - 1.6057591537263174e-02
         - -3.7977076605268181e-02
         - 2.7861018915632106e-02
         - -2.8074971537114576e-03
         - -2.1519582659629843e-02
         - 5.7842379343769953e-03
         - 1.7035860542643755e-03
         - 3.2229454574298287e-02
         - 1.1019089089674482e-03
         - 3.7125340661785737e-02
         - -7.1041292574174596e-03
         - 3.2458989994417514e-02
         - -1.4880228806533070e-02
         - -2.9678760240813083e-02
         - 3.2121623539076875e-02
         - 5.8321492082634561e-02
         - 1.7472797354842473e-02
         - -3.7911510039553231e-02
         - 2.8683124256390080e-02
         - -2.5254075786257171e-03
         - -1.8797428938572957e-02
         - 7.4681749047636782e-03
         - 2.8934038457139586e-03
         - 3.3227397238643090e-02
         - -2.3510334189483814e-03
         - 3.8111688827545821e-02
         - -6.7782865274731655e-03
         - 2.9447006144399945e-02
         - -1.6053333597359856e-02
         - -2.9862625147435040e-02
         - 3.0162569577180501e-02
         - 5.9700554057378903e-02
         - 1.5147522368303959e-02
         - -3.6463754679150556e-02
         - 2.6226431801415831e-02
         - -3.0714597041040259e-03
         - -2.0648213785646682e-02
         - 5.4972440203853185e-03
         - 4.4640512670297394e-04
         - 3.4750569803737467e-02
         - 2.4048438140088430e-04
         - 3.6037308793815066e-02
         - -7.2803498918198456e-03
         - 2.9383867210406683e-02
         - -3.4656444241463226e-02
         - -2.5943104215773109e-02
         - 2.4469520455897203e-02
         - 1.5038770607685267e-02
         - 3.5277471044368757e-03
         - -2.6918415688203929e-02
         - -1.1842365843461832e-02
         - -4.6614198424497783e-03
         - -4.7681555235010685e-03
         - 7.5350078883032402e-04
         - 4.1374956882023447e-03
         - -6.9741618573977947e-03
         - -2.3421912312121982e-03
         - 5.6922226522294530e-03
         - -5.2883738590816685e-03
         - 2.8299459721803817e-02
         - -3.5147138658592529e-02
         - -2.6989589285392475e-02
         - 2.6980030126335902e-02
         - 1.6908937591406319e-02
         - 5.0210856227378099e-03
         - -2.7506313517418311e-02
         - -1.2685530475414215e-02
         - -6.0061861048853662e-03
         - -2.4284102746282565e-03
         - 1.4947815977265824e-03
         - 3.8660200523891277e-03
         - -7.7265710371877024e-03
         - -3.0950317781372736e-03
         - 4.2433079850646861e-03
         - -7.7585037127195543e-03
         - 2.7342662515826531e-02
         - -3.6901730639103424e-02
         - -2.6838291229794468e-02
         - 2.4548586346613520e-02
         - 1.6144997084457754e-02
         - 5.1625858706645890e-03
         - -2.5974369601614766e-02
         - -1.4871062983724186e-02
         - -2.9650660341001018e-03
         - -4.4562555354091034e-03
         - 2.6557694844618527e-03
         - 3.4547085514706243e-03
         - -6.6417324199618995e-03
         - -2.2542105552748447e-03
         - 6.8195161139812423e-03
         - -7.4830077314408791e-03
         - 2.6184791820921070e-02
         - -3.6166897231386393e-02
         - -2.6919368510255004e-02
         - 2.5243292131325298e-02
         - 1.5706577926884974e-02
         - 3.3295984116903598e-03
         - -2.8212674614993164e-02
         - -1.5125198456352990e-02
         - -4.7233508916139349e-03
         - -3.7050102741948421e-03
         - 1.8709873992143475e-03
         - 7.1435718691541272e-04
         - -6.9627948047603829e-03
         - -6.0497231270346843e-04
         - 3.8431787931095052e-03
         - -5.0027402061065705e-03
         - 2.8085545928549616e-02
         - -3.3872846806690511e-02
         - -2.7412719509396805e-02
         - 2.5222584543233825e-02
         - 1.4420139209192075e-02
         - 3.5202670546339346e-03
         - -2.7689154743818053e-02
         - -1.4576242035468534e-02
         - -4.8199925649239847e-03
         - -3.9597291797898648e-03
         - 4.4430622243726663e-04
         - 3.5238954279924149e-03
         - -6.6866595503160906e-03
         - -3.9245927982482559e-03
         - 6.5988711446908974e-03
         - -4.8054152836577877e-03
         - 2.6803362163960575e-02
         - -3.4703163753798526e-02
         - -2.7715087596639043e-02
         - 2.5417015800018559e-02
         - 1.4996818210176087e-02
         - 3.9336783847731833e-03
         - -2.9040827666412191e-02
         - -1.2670434075992387e-02
         - -3.2746324607212081e-03
         - -4.2989462205001612e-03
         - 5.1858621526903233e-04
         - 2.5496810931998608e-03
         - -6.7488874901171364e-03
         - -7.9167917418736808e-04
         - 4.2759500735002638e-03
         - -5.0072074505065770e-03
         - 2.6151243644632314e-02
         - -3.4117761381074134e-02
         - -2.7643649916260615e-02
         - 2.4460439113645045e-02
         - 1.6195304466452690e-02
         - 2.2318159994039175e-03
         - -2.6272322255404598e-02
         - -1.2641723256379984e-02
         - -5.8399172559394051e-03
         - -5.9269395267444354e-03
         - 3.4501805105809579e-03
         - 2.3708996901750526e-03
         - -7.3780693433958301e-03
         - -1.3943579891450208e-03
         - 4.1590046747029645e-03
         - -7.0215975797839380e-03
         - 2.6434456218925696e-02
         - -3.7346931539870433e-02
         - -2.8796326954483614e-02
         - 2.7484493471094801e-02
         - 1.5221599449939519e-02
         - 2.5194134168620512e-03
         - -2.6543394072949648e-02
         - -1.4048966854539241e-02
         - -4.1032975481370242e-03
         - -2.8541487105266513e-03
         - 5.5313705964463254e-04
         - 2.9939109181551940e-03
         - -7.7964320873715257e-03
         - -6.8685140151241884e-04
         - 5.1194195577816768e-03
         - -6.2738927389600534e-03
         - 2.7403299550683727e-02
         - 3.5231486301406392e-02
         - -2.1160761876362386e-02
         - -6.2496039995528748e-03
         - -1.4407444178079579e-01
         - -7.9900397162128919e-02
         - 2.4373844279775808e-03
         - -1.5926378575062039e-01
         - -2.5135229335348078e-02
         - -6.0566851424458751e-02
         - -3.0393033243038044e-02
         - -1.1323792071630362e-02
         - -2.3065964101190928e-01
         - -2.2383769399432336e-02
         - -1.3190947333178724e-01
         - 1.9760283120343364e-02
         - 2.3996818378424482e-02
         - -4.5137957957491820e-03
         - -1.8616130881952419e-02
         - -1.0740716315073433e-02
         - 3.9867248350854242e-02
         - -1.5860722573259538e-02
         - 7.3461105383532260e-03
         - 3.1942915228407296e-03
         - -1.6559289934039361e-02
         - 3.9742869822169041e-02
         - -1.6492997682070274e-02
         - -2.5382190011738290e-02
         - -2.0067864768391556e-02
         - -1.3254205549419163e-02
         - 2.9525890321982946e-02
         - 1.8013241219886299e-02
         - 1.5236095900887370e-02
         - -4.0977917314472664e-03
         - -1.8417905695292783e-02
         - -1.2120726481106545e-02
         - 4.1941421156341030e-02
         - -1.6905518197518669e-02
         - 8.5913540269851388e-03
         - 2.1671527519622398e-03
         - -1.7951162307991399e-02
         - 4.0181602337980390e-02
         - -1.6914268788872092e-02
         - -2.5884518979205857e-02
         - -1.6950642355602230e-02
         - -1.4616230717437865e-02
         - 2.9752699256706455e-02
         - 2.0092973399274020e-02
         - 1.6053588618316052e-02
         - -6.8999502539020064e-03
         - -1.6883605521069427e-02
         - -1.2049250421068242e-02
         - 3.9560139792928550e-02
         - -1.5926901051640657e-02
         - 8.3915923810301430e-03
         - 5.2482707103066540e-03
         - -1.8026136988720524e-02
         - 4.0355355769881571e-02
         - -1.6635762249719136e-02
         - -2.6205804630965911e-02
         - -1.8058481305881766e-02
         - -1.4766781846526909e-02
         - 3.1058790091408883e-02
         - 2.0972770019285197e-02
         - 1.7686801239911426e-02
         - -3.2955810612123534e-03
         - -1.7372795196411207e-02
         - -1.1106885713649236e-02
         - 4.0232776840970222e-02
         - -1.5037531650148877e-02
         - 7.4353300631046886e-03
         - 1.9812379879146028e-03
         - -1.4723601588740082e-02
         - 4.0241469656587259e-02
         - -1.6325044353451442e-02
         - -2.7681176924193696e-02
         - -1.6534890784130271e-02
         - -1.2166364236522295e-02
         - 2.8480299211181906e-02
         - 1.8122576579378328e-02
         - 1.6198020618290940e-02
         - -5.0433270789862913e-02
         - -2.8802377052984003e-02
         - -1.2688984074905974e-02
         - 9.7171629876796631e-02
         - 1.1023789304988841e-02
         - 1.9339515549443773e-02
         - 9.1121387342855187e-02
         - -1.8193227105993807e-02
         - 5.7650861740243566e-02
         - -1.3372913831401790e-02
         - -2.6085311345767661e-02
         - 8.2664363345465522e-02
         - -1.0794490253712237e-02
         - 1.0389131018388548e-01
         - 1.1385325878477450e-02
         - 2.7237980458322666e-02
         - -1.3438464134969949e-01
         - 2.3877891261635593e-02
         - -1.4937194012612152e-02
         - -3.2529215745617644e-02
         - 1.9961431302836327e-02
         - 6.2945928325011643e-03
         - -2.1069254744970997e-02
         - 5.1174799434562258e-03
         - 1.4458559282815661e-01
         - 2.4353044659642408e-03
         - -6.8312531778378580e-03
         - 6.5385199065617544e-02
         - 4.8480039905153781e-03
         - -1.6145971224966723e-03
         - 6.2383716000576567e-03
         - -2.3210509330066052e-02
         - -4.0298879364703409e-02
         - 2.6138061746549295e-02
         - -1.8060288021508063e-02
         - -2.6035433919513837e-02
         - 1.8153109703668759e-02
         - 1.1106667292496887e-02
         - -5.7313398473566611e-02
         - 4.5826802542881179e-03
         - 8.2309569650365524e-02
         - 3.2537415450937805e-03
         - -3.0915455474350186e-03
         - 9.5030812564353227e-03
         - 4.3476293765705096e-03
         - -3.1629511410072600e-02
         - 1.6499460815862267e-02
         - -2.4222097188910590e-02
         - 2.9824980390802770e-02
         - -2.0043666259916420e-02
         - -1.6926532246864502e-02
         - 9.8429620016000585e-02
         - 4.6645563616931861e-03
         - 2.0382182739734921e-02
         - 5.5630944632948764e-02
         - -1.4986990239324939e-02
         - 1.0816072501248997e-02
         - -1.2467565112722175e-02
         - -2.2706041756250978e-02
         - 3.0140446018449441e-02
         - -1.1587485296066440e-02
         - 7.4907057604309726e-02
         - 2.1049841857572086e-02
         - 2.2951173237510978e-02
         - -5.9678795450389286e-03
         - -1.8620792728152018e-02
         - -1.1146470480064308e-02
         - 4.2740074110724946e-02
         - -1.4280793634481951e-02
         - 6.9237654377551239e-03
         - 3.5497776135736138e-03
         - -1.7130617353195932e-02
         - 4.0274009226326582e-02
         - -1.7897221675606149e-02
         - -2.7965109233250726e-02
         - -1.8383330463376084e-02
         - -1.4163773229742061e-02
         - 2.8565395496464141e-02
         - 2.0713608051523776e-02
         - 1.7382044721915568e-02
         - -4.1928889896517786e-03
         - -1.6472085966656325e-02
         - -1.3437544376418671e-02
         - 4.2265083056075500e-02
         - -1.5430168210745308e-02
         - 7.9475834498460522e-03
         - 3.9549320980186318e-03
         - -1.6522225995530611e-02
         - 3.7855884951171814e-02
         - -1.5787705733873014e-02
         - -2.6013129682636714e-02
         - -1.8081506716083502e-02
         - -1.1119448366673191e-02
         - 3.1635805348881718e-02
         - 1.8022355290096232e-02
         - 1.5331130386248804e-02
         - -5.5503890960921015e-03
         - -1.7188834508309263e-02
         - -1.2707343149886970e-02
         - 4.0246613561736075e-02
         - -1.4578243042301974e-02
         - 5.2622326763968781e-03
         - 2.4216790434363265e-03
         - -1.5196498497083539e-02
         - 4.0682360090613795e-02
         - -1.6333247157126789e-02
         - -2.8565363555992380e-02
         - -1.7812858687016264e-02
         - -1.2613824141504809e-02
         - 2.8684347719932085e-02
         - 1.8505386680145352e-02
         - 1.6352119899250464e-02
         - -4.5031428006740764e-03
         - -1.7920958992261926e-02
         - -1.0901122965295986e-02
         - 4.2893500836779994e-02
         - -1.4769411723174258e-02
         - 7.4455271679235713e-03
         - 3.6321479911937539e-03
         - -1.5571284959033241e-02
         - 4.0158518943739729e-02
         - -1.7058963132067801e-02
         - -2.5775530338800361e-02
         - -1.8247825347132499e-02
         - -1.3235370355137303e-02
         - 2.9200641976097001e-02
         - 1.8331075615937286e-02
         - 1.7524905692942287e-02
         - 3.4739743596309144e-02
         - -2.2783553404570896e-02
         - -6.5521369380428631e-03
         - -1.4688123044855048e-01
         - -8.0597892316147071e-02
         - 2.6981994942377840e-03
         - -1.5687668879521777e-01
         - -2.4351846520838362e-02
         - -6.0547393334438926e-02
         - -3.0779900808119751e-02
         - -1.2748372040875684e-02
         - -2.2878909734328612e-01
         - -2.3627966490945292e-02
         - -1.3038104338296028e-01
         - 1.7653654028285656e-02
         - 2.2484821850175564e-02
         - -3.5951089971085183e-02
         - -2.9104997753330752e-02
         - 2.5253324683419641e-02
         - 1.4950946230545211e-02
         - 5.1093534453148003e-03
         - -2.8708634093217351e-02
         - -1.5301331910384942e-02
         - -5.0490868457961687e-03
         - -5.3445352376731859e-03
         - 2.0179973622348668e-03
         - 5.0242319025241809e-04
         - -7.1960105997864888e-03
         - -2.8062112206635945e-03
         - 3.0655819041750026e-03
         - -5.8489502075041210e-03
         - 2.6808177793604806e-02
         - -3.6027043715661684e-02
         - -2.6920639967752652e-02
         - 2.6497771482615180e-02
         - 1.7579144081981732e-02
         - 2.5401673179430450e-03
         - -2.6741195970506382e-02
         - -1.4074225543977328e-02
         - -4.1983960866785949e-03
         - -2.3547675450562586e-03
         - 1.0793007876188621e-03
         - 3.8630702800370250e-03
         - -5.0283837922779195e-03
         - -1.0083060388216135e-03
         - 3.3610806202286382e-03
         - -5.3001007013684541e-03
         - 2.7550804936735791e-02
         - -3.6807075175269009e-02
         - -2.6583638232309192e-02
         - 2.5072748138491009e-02
         - 1.7382388943809557e-02
         - 4.2659903442107414e-03
         - -2.6683231821294184e-02
         - -1.4234169223539057e-02
         - -2.7387417495863845e-03
         - -4.7450867438182196e-03
         - 1.7554607921498990e-03
         - 3.6091911851909297e-03
         - -7.1486639230547329e-03
         - -6.8757475557180070e-04
         - 3.0591020069995053e-03
         - -5.5253286545022704e-03
         - 2.8554432476490761e-02
         - -3.4151195609652261e-02
         - -2.6013738111996809e-02
         - 2.6880901672724097e-02
         - 1.6541454703862431e-02
         - 5.7515628059814127e-03
         - -2.8260890699499022e-02
         - -1.2536417083913738e-02
         - -4.1060451064098141e-03
         - -3.8168784972762411e-03
         - 2.3913762625032875e-03
         - 1.9298573136761576e-04
         - -7.6799645084188167e-03
         - -3.4741452350909611e-03
         - 3.5065041391149953e-03
         - -7.1010218390967659e-03
         - 2.7846175640218962e-02
         - -3.5025645027942677e-02
         - -2.6672481664957143e-02
         - 2.4465318365122030e-02
         - 1.5938297612502088e-02
         - 5.2109180957045529e-03
         - -2.8727125737782317e-02
         - -1.3413799127920435e-02
         - -4.1132606484328912e-03
         - -4.1687132776247211e-03
         - 1.1073251869686083e-03
         - 2.2474991341513680e-03
         - -7.2524836686759520e-03
         - -3.0334298733845732e-03
         - 4.3546186287157299e-03
         - -5.4064204741697030e-03
         - 2.8615821422259678e-02
         - -3.4284114031671704e-02
         - -2.6878205171521410e-02
         - 2.5150046571415161e-02
         - 1.7474879800937974e-02
         - 2.7048685729161733e-03
         - -2.8771676670127536e-02
         - -1.4141831737264101e-02
         - -2.9025086222677428e-03
         - -3.9253737325111553e-03
         - -5.4130876718991403e-05
         - 2.5578427123540843e-04
         - -7.7807758747325418e-03
         - -1.4506608778280458e-03
         - 6.6173272392501536e-03
         - -7.7862952546808905e-03
         - 2.8586281821695113e-02
         - -3.6630261343815730e-02
         - -2.8235711484454203e-02
         - 2.7512320980071364e-02
         - 1.5515246136164529e-02
         - 4.3642021237096174e-03
         - -2.7803512902287563e-02
         - -1.1622692131899780e-02
         - -5.6493997110905209e-03
         - -3.6874149576893609e-03
         - 3.3900611103509812e-03
         - 3.3796221695842245e-04
         - -6.1081216435703127e-03
         - -4.2540047004338867e-03
         - 4.1757375399213859e-03
         - -6.8797438980170754e-03
         - 2.7697172157590981e-02
         - -3.6279107963755670e-02
         - -2.6631318222583383e-02
         - 2.4934827112413148e-02
         - 1.4181505289336562e-02
         - 5.6396901770823420e-03
         - -2.8242718883336061e-02
         - -1.4006648429544178e-02
         - -3.2103646991613571e-03
         - -5.8276587929087537e-03
         - 2.5247999790339501e-03
         - 1.5867584817574583e-03
         - -7.0279957898524287e-03
         - -4.2794851686475868e-03
         - 3.7591968103655561e-03
         - -4.9367282965662737e-03
         - 2.7931572271812657e-02
         - -1.5505458778852592e-02
         - -3.0514443621052219e-02
         - 3.1719408006949008e-02
         - 5.9002693278994579e-02
         - 1.5281548001060566e-02
         - -3.9519465081604879e-02
         - 2.7822974355387421e-02
         - -1.5542523461411109e-03
         - -2.0710652559775767e-02
         - 7.4973804643186700e-03
         - 9.4092113044639723e-04
         - 3.5347988899687231e-02
         - -1.0258892418429514e-03
         - 3.7177092518941530e-02
         - -8.4357277357712812e-03
         - 3.1220374796301263e-02
         - -3.6334328842487697e-02
         - -2.6997155310568226e-02
         - 2.5095122903562306e-02
         - 1.4295075398754270e-02
         - 2.9654924050710285e-03
         - -2.7372635411888214e-02
         - -1.5114018143315158e-02
         - -4.5958569984209992e-03
         - -4.1719783386255024e-03
         - 9.8306103859146208e-05
         - 4.5009583467532996e-04
         - -5.4260763316839374e-03
         - -6.1141458185307810e-04
         - 6.1846815443058097e-03
         - -7.8801483462779421e-03
         - 2.8394829993628183e-02
         - -1.6999204580082413e-02
         - -2.9212615315157450e-02
         - 3.2476096156327211e-02
         - 5.9507750449405351e-02
         - 1.6613429515298428e-02
         - -3.8699233263950986e-02
         - 2.7131664509070376e-02
         - -1.2658310190257287e-03
         - -2.0374046238450041e-02
         - 4.9559429020907386e-03
         - 6.0759956342746615e-04
         - 3.3349955425355661e-02
         - -1.2258429092121400e-03
         - 3.8726473700811080e-02
         - -9.5747171425851450e-03
         - 3.0764278650359911e-02
         - -3.3818975066379604e-02
         - -2.6586439612729461e-02
         - 2.4571548492498853e-02
         - 1.5783757282295818e-02
         - 3.1100973632928095e-03
         - -2.9008515475232925e-02
         - -1.3935194660223287e-02
         - -3.6446732881141876e-03
         - -4.4716308046360825e-03
         - 2.5297507054064332e-03
         - 2.9208678225754849e-03
         - -7.5410051908521292e-03
         - -2.6787834008239848e-03
         - 3.2429412522762121e-03
         - -6.9719236048472544e-03
         - 2.8785077183024539e-02
         - -3.6716199630415204e-02
         - -2.5848375480472849e-02
         - 2.6084538509897663e-02
         - 1.7521355252948186e-02
         - 5.2595780959996752e-03
         - -2.9276081567434806e-02
         - -1.4426416382808130e-02
         - -2.8298157815586150e-03
         - -6.2954358813367070e-03
         - 1.0299295197075935e-05
         - 3.5533672112776273e-03
         - -4.6544097780901426e-03
         - -3.9305494056713240e-03
         - 3.5552161152331858e-03
         - -7.2277854285132106e-03
         - 2.5207507293373479e-02
         - -3.4575289702179136e-02
         - -2.6331624466515532e-02
         - 2.5150654559498054e-02
         - 1.4940908979926705e-02
         - 3.5314746383555934e-03
         - -2.8500776067611009e-02
         - -1.1745122968457734e-02
         - -4.6198661150682243e-03
         - -2.6838202312216026e-03
         - 1.8431411187124539e-03
         - 2.7935913426377652e-03
         - -7.3049919877103686e-03
         - -2.4315434558300339e-03
         - 5.0776183400663456e-03
         - -7.9468200782023997e-03
         - 2.6591739541750443e-02
         - -3.6907461886435601e-02
         - -2.5365772216748010e-02
         - 2.6112978839466838e-02
         - 1.4280345965373777e-02
         - 2.4782899759295666e-03
         - -2.7745469565053676e-02
         - -1.4901996406774035e-02
         - -4.2059231392230024e-03
         - -4.8503527860124934e-03
         - 1.4928361250299200e-03
         - 1.7903619110038555e-03
         - -8.1811714699842539e-03
         - -3.3876116550773817e-03
         - 6.6762713656908952e-03
         - -7.7653155836123833e-03
         - 2.7943944841078941e-02
         - -3.6834973137627465e-02
         - -2.5864759120843163e-02
         - 2.5114189805230412e-02
         - 1.6551802613365134e-02
         - 5.0716420637395765e-03
         - -2.8406051295726823e-02
         - -1.4458669472103548e-02
         - -3.0629017277045453e-03
         - -4.7989004805411815e-03
         - 1.0523368473327136e-03
         - 1.4385361319824504e-03
         - -5.9240361484383577e-03
         - -2.4049837851665597e-03
         - 4.6353161890502290e-03
         - -5.8652533355483512e-03
         - 2.6589943252162376e-02
         - 3.5267491729951680e-02
         - -2.3707683373769502e-02
         - -7.4214427765637659e-03
         - -1.4776500472389284e-01
         - -7.8612148396852502e-02
         - 4.4102439778623001e-03
         - -1.5711294877965398e-01
         - -2.4618900930358692e-02
         - -6.1525927882110656e-02
         - -3.0924697187168212e-02
         - -1.2574971616379068e-02
         - -2.3014998435483966e-01
         - -2.2151586031841069e-02
         - -1.3233648053673175e-01
         - 1.9547565015205437e-02
         - 2.1624737389979498e-02
